digraph Tree {
node [shape=box] ;
0 [label="X[2] <= 0.015\ngini = 0.432\nsamples = 4532\nvalue = [3099, 1433]"] ;
1 [label="X[2] <= 0.008\ngini = 0.38\nsamples = 3520\nvalue = [2621, 899]"] ;
0 -> 1 [labeldistance=2.5, labelangle=45, headlabel="True"] ;
2 [label="X[1] <= 0.0\ngini = 0.347\nsamples = 103\nvalue = [23, 80]"] ;
1 -> 2 ;
3 [label="X[4] <= 0.009\ngini = 0.5\nsamples = 22\nvalue = [11, 11]"] ;
2 -> 3 ;
4 [label="X[5] <= 0.012\ngini = 0.245\nsamples = 7\nvalue = [1, 6]"] ;
3 -> 4 ;
5 [label="gini = 0.0\nsamples = 6\nvalue = [0, 6]"] ;
4 -> 5 ;
6 [label="gini = 0.0\nsamples = 1\nvalue = [1, 0]"] ;
4 -> 6 ;
7 [label="X[4] <= 0.015\ngini = 0.444\nsamples = 15\nvalue = [10, 5]"] ;
3 -> 7 ;
8 [label="gini = 0.0\nsamples = 6\nvalue = [6, 0]"] ;
7 -> 8 ;
9 [label="X[2] <= 0.004\ngini = 0.494\nsamples = 9\nvalue = [4, 5]"] ;
7 -> 9 ;
10 [label="gini = 0.0\nsamples = 3\nvalue = [3, 0]"] ;
9 -> 10 ;
11 [label="X[9] <= 0.002\ngini = 0.278\nsamples = 6\nvalue = [1, 5]"] ;
9 -> 11 ;
12 [label="X[4] <= 0.019\ngini = 0.5\nsamples = 2\nvalue = [1, 1]"] ;
11 -> 12 ;
13 [label="gini = 0.0\nsamples = 1\nvalue = [0, 1]"] ;
12 -> 13 ;
14 [label="gini = 0.0\nsamples = 1\nvalue = [1, 0]"] ;
12 -> 14 ;
15 [label="gini = 0.0\nsamples = 4\nvalue = [0, 4]"] ;
11 -> 15 ;
16 [label="X[2] <= 0.006\ngini = 0.252\nsamples = 81\nvalue = [12, 69]"] ;
2 -> 16 ;
17 [label="X[0] <= 0.007\ngini = 0.415\nsamples = 34\nvalue = [10, 24]"] ;
16 -> 17 ;
18 [label="X[6] <= 0.008\ngini = 0.293\nsamples = 28\nvalue = [5, 23]"] ;
17 -> 18 ;
19 [label="X[6] <= 0.005\ngini = 0.49\nsamples = 7\nvalue = [4, 3]"] ;
18 -> 19 ;
20 [label="gini = 0.0\nsamples = 3\nvalue = [0, 3]"] ;
19 -> 20 ;
21 [label="gini = 0.0\nsamples = 4\nvalue = [4, 0]"] ;
19 -> 21 ;
22 [label="X[1] <= 0.008\ngini = 0.091\nsamples = 21\nvalue = [1, 20]"] ;
18 -> 22 ;
23 [label="gini = 0.0\nsamples = 18\nvalue = [0, 18]"] ;
22 -> 23 ;
24 [label="X[4] <= 0.014\ngini = 0.444\nsamples = 3\nvalue = [1, 2]"] ;
22 -> 24 ;
25 [label="gini = 0.0\nsamples = 1\nvalue = [1, 0]"] ;
24 -> 25 ;
26 [label="gini = 0.0\nsamples = 2\nvalue = [0, 2]"] ;
24 -> 26 ;
27 [label="X[4] <= 0.033\ngini = 0.278\nsamples = 6\nvalue = [5, 1]"] ;
17 -> 27 ;
28 [label="gini = 0.0\nsamples = 5\nvalue = [5, 0]"] ;
27 -> 28 ;
29 [label="gini = 0.0\nsamples = 1\nvalue = [0, 1]"] ;
27 -> 29 ;
30 [label="X[1] <= 0.001\ngini = 0.081\nsamples = 47\nvalue = [2, 45]"] ;
16 -> 30 ;
31 [label="X[1] <= 0.001\ngini = 0.231\nsamples = 15\nvalue = [2, 13]"] ;
30 -> 31 ;
32 [label="X[1] <= 0.001\ngini = 0.133\nsamples = 14\nvalue = [1, 13]"] ;
31 -> 32 ;
33 [label="gini = 0.0\nsamples = 10\nvalue = [0, 10]"] ;
32 -> 33 ;
34 [label="X[7] <= 0.007\ngini = 0.375\nsamples = 4\nvalue = [1, 3]"] ;
32 -> 34 ;
35 [label="gini = 0.0\nsamples = 1\nvalue = [1, 0]"] ;
34 -> 35 ;
36 [label="gini = 0.0\nsamples = 3\nvalue = [0, 3]"] ;
34 -> 36 ;
37 [label="gini = 0.0\nsamples = 1\nvalue = [1, 0]"] ;
31 -> 37 ;
38 [label="gini = 0.0\nsamples = 32\nvalue = [0, 32]"] ;
30 -> 38 ;
39 [label="X[1] <= 0.015\ngini = 0.364\nsamples = 3417\nvalue = [2598, 819]"] ;
1 -> 39 ;
40 [label="X[9] <= 0.001\ngini = 0.317\nsamples = 2734\nvalue = [2195, 539]"] ;
39 -> 40 ;
41 [label="X[1] <= 0.003\ngini = 0.429\nsamples = 886\nvalue = [610, 276]"] ;
40 -> 41 ;
42 [label="X[2] <= 0.015\ngini = 0.276\nsamples = 400\nvalue = [334, 66]"] ;
41 -> 42 ;
43 [label="X[6] <= 0.001\ngini = 0.264\nsamples = 396\nvalue = [334, 62]"] ;
42 -> 43 ;
44 [label="X[9] <= 0.0\ngini = 0.408\nsamples = 7\nvalue = [2, 5]"] ;
43 -> 44 ;
45 [label="X[1] <= 0.001\ngini = 0.444\nsamples = 3\nvalue = [2, 1]"] ;
44 -> 45 ;
46 [label="gini = 0.0\nsamples = 1\nvalue = [0, 1]"] ;
45 -> 46 ;
47 [label="gini = 0.0\nsamples = 2\nvalue = [2, 0]"] ;
45 -> 47 ;
48 [label="gini = 0.0\nsamples = 4\nvalue = [0, 4]"] ;
44 -> 48 ;
49 [label="X[5] <= 0.026\ngini = 0.25\nsamples = 389\nvalue = [332, 57]"] ;
43 -> 49 ;
50 [label="X[0] <= 0.005\ngini = 0.193\nsamples = 277\nvalue = [247, 30]"] ;
49 -> 50 ;
51 [label="X[8] <= 0.005\ngini = 0.444\nsamples = 6\nvalue = [2, 4]"] ;
50 -> 51 ;
52 [label="gini = 0.0\nsamples = 2\nvalue = [2, 0]"] ;
51 -> 52 ;
53 [label="gini = 0.0\nsamples = 4\nvalue = [0, 4]"] ;
51 -> 53 ;
54 [label="X[2] <= 0.014\ngini = 0.173\nsamples = 271\nvalue = [245, 26]"] ;
50 -> 54 ;
55 [label="X[0] <= 0.017\ngini = 0.131\nsamples = 241\nvalue = [224, 17]"] ;
54 -> 55 ;
56 [label="gini = 0.0\nsamples = 36\nvalue = [36, 0]"] ;
55 -> 56 ;
57 [label="X[0] <= 0.017\ngini = 0.152\nsamples = 205\nvalue = [188, 17]"] ;
55 -> 57 ;
58 [label="gini = 0.0\nsamples = 1\nvalue = [0, 1]"] ;
57 -> 58 ;
59 [label="X[1] <= 0.002\ngini = 0.145\nsamples = 204\nvalue = [188, 16]"] ;
57 -> 59 ;
60 [label="X[7] <= 0.032\ngini = 0.097\nsamples = 137\nvalue = [130, 7]"] ;
59 -> 60 ;
61 [label="X[0] <= 0.03\ngini = 0.075\nsamples = 129\nvalue = [124, 5]"] ;
60 -> 61 ;
62 [label="X[6] <= 0.022\ngini = 0.062\nsamples = 125\nvalue = [121, 4]"] ;
61 -> 62 ;
63 [label="gini = 0.0\nsamples = 61\nvalue = [61, 0]"] ;
62 -> 63 ;
64 [label="X[6] <= 0.022\ngini = 0.117\nsamples = 64\nvalue = [60, 4]"] ;
62 -> 64 ;
65 [label="gini = 0.0\nsamples = 1\nvalue = [0, 1]"] ;
64 -> 65 ;
66 [label="X[4] <= 0.003\ngini = 0.091\nsamples = 63\nvalue = [60, 3]"] ;
64 -> 66 ;
67 [label="X[1] <= 0.001\ngini = 0.5\nsamples = 2\nvalue = [1, 1]"] ;
66 -> 67 ;
68 [label="gini = 0.0\nsamples = 1\nvalue = [1, 0]"] ;
67 -> 68 ;
69 [label="gini = 0.0\nsamples = 1\nvalue = [0, 1]"] ;
67 -> 69 ;
70 [label="X[2] <= 0.012\ngini = 0.063\nsamples = 61\nvalue = [59, 2]"] ;
66 -> 70 ;
71 [label="gini = 0.0\nsamples = 40\nvalue = [40, 0]"] ;
70 -> 71 ;
72 [label="X[1] <= 0.001\ngini = 0.172\nsamples = 21\nvalue = [19, 2]"] ;
70 -> 72 ;
73 [label="gini = 0.0\nsamples = 13\nvalue = [13, 0]"] ;
72 -> 73 ;
74 [label="X[1] <= 0.001\ngini = 0.375\nsamples = 8\nvalue = [6, 2]"] ;
72 -> 74 ;
75 [label="X[2] <= 0.013\ngini = 0.444\nsamples = 3\nvalue = [1, 2]"] ;
74 -> 75 ;
76 [label="gini = 0.0\nsamples = 2\nvalue = [0, 2]"] ;
75 -> 76 ;
77 [label="gini = 0.0\nsamples = 1\nvalue = [1, 0]"] ;
75 -> 77 ;
78 [label="gini = 0.0\nsamples = 5\nvalue = [5, 0]"] ;
74 -> 78 ;
79 [label="X[0] <= 0.031\ngini = 0.375\nsamples = 4\nvalue = [3, 1]"] ;
61 -> 79 ;
80 [label="gini = 0.0\nsamples = 1\nvalue = [0, 1]"] ;
79 -> 80 ;
81 [label="gini = 0.0\nsamples = 3\nvalue = [3, 0]"] ;
79 -> 81 ;
82 [label="X[2] <= 0.013\ngini = 0.375\nsamples = 8\nvalue = [6, 2]"] ;
60 -> 82 ;
83 [label="X[9] <= 0.0\ngini = 0.444\nsamples = 3\nvalue = [1, 2]"] ;
82 -> 83 ;
84 [label="gini = 0.0\nsamples = 1\nvalue = [1, 0]"] ;
83 -> 84 ;
85 [label="gini = 0.0\nsamples = 2\nvalue = [0, 2]"] ;
83 -> 85 ;
86 [label="gini = 0.0\nsamples = 5\nvalue = [5, 0]"] ;
82 -> 86 ;
87 [label="X[1] <= 0.002\ngini = 0.233\nsamples = 67\nvalue = [58, 9]"] ;
59 -> 87 ;
88 [label="X[4] <= 0.013\ngini = 0.5\nsamples = 4\nvalue = [2, 2]"] ;
87 -> 88 ;
89 [label="gini = 0.0\nsamples = 2\nvalue = [2, 0]"] ;
88 -> 89 ;
90 [label="gini = 0.0\nsamples = 2\nvalue = [0, 2]"] ;
88 -> 90 ;
91 [label="X[5] <= 0.026\ngini = 0.198\nsamples = 63\nvalue = [56, 7]"] ;
87 -> 91 ;
92 [label="X[9] <= 0.0\ngini = 0.177\nsamples = 61\nvalue = [55, 6]"] ;
91 -> 92 ;
93 [label="X[8] <= 0.0\ngini = 0.059\nsamples = 33\nvalue = [32, 1]"] ;
92 -> 93 ;
94 [label="X[4] <= 0.021\ngini = 0.375\nsamples = 4\nvalue = [3, 1]"] ;
93 -> 94 ;
95 [label="gini = 0.0\nsamples = 3\nvalue = [3, 0]"] ;
94 -> 95 ;
96 [label="gini = 0.0\nsamples = 1\nvalue = [0, 1]"] ;
94 -> 96 ;
97 [label="gini = 0.0\nsamples = 29\nvalue = [29, 0]"] ;
93 -> 97 ;
98 [label="X[8] <= 0.006\ngini = 0.293\nsamples = 28\nvalue = [23, 5]"] ;
92 -> 98 ;
99 [label="X[4] <= 0.005\ngini = 0.165\nsamples = 22\nvalue = [20, 2]"] ;
98 -> 99 ;
100 [label="X[0] <= 0.02\ngini = 0.375\nsamples = 8\nvalue = [6, 2]"] ;
99 -> 100 ;
101 [label="gini = 0.0\nsamples = 1\nvalue = [0, 1]"] ;
100 -> 101 ;
102 [label="X[6] <= 0.014\ngini = 0.245\nsamples = 7\nvalue = [6, 1]"] ;
100 -> 102 ;
103 [label="X[6] <= 0.011\ngini = 0.5\nsamples = 2\nvalue = [1, 1]"] ;
102 -> 103 ;
104 [label="gini = 0.0\nsamples = 1\nvalue = [1, 0]"] ;
103 -> 104 ;
105 [label="gini = 0.0\nsamples = 1\nvalue = [0, 1]"] ;
103 -> 105 ;
106 [label="gini = 0.0\nsamples = 5\nvalue = [5, 0]"] ;
102 -> 106 ;
107 [label="gini = 0.0\nsamples = 14\nvalue = [14, 0]"] ;
99 -> 107 ;
108 [label="X[4] <= 0.004\ngini = 0.5\nsamples = 6\nvalue = [3, 3]"] ;
98 -> 108 ;
109 [label="gini = 0.0\nsamples = 2\nvalue = [2, 0]"] ;
108 -> 109 ;
110 [label="X[9] <= 0.0\ngini = 0.375\nsamples = 4\nvalue = [1, 3]"] ;
108 -> 110 ;
111 [label="gini = 0.0\nsamples = 3\nvalue = [0, 3]"] ;
110 -> 111 ;
112 [label="gini = 0.0\nsamples = 1\nvalue = [1, 0]"] ;
110 -> 112 ;
113 [label="X[8] <= 0.0\ngini = 0.5\nsamples = 2\nvalue = [1, 1]"] ;
91 -> 113 ;
114 [label="gini = 0.0\nsamples = 1\nvalue = [1, 0]"] ;
113 -> 114 ;
115 [label="gini = 0.0\nsamples = 1\nvalue = [0, 1]"] ;
113 -> 115 ;
116 [label="X[1] <= 0.002\ngini = 0.42\nsamples = 30\nvalue = [21, 9]"] ;
54 -> 116 ;
117 [label="X[5] <= 0.025\ngini = 0.287\nsamples = 23\nvalue = [19, 4]"] ;
116 -> 117 ;
118 [label="X[0] <= 0.011\ngini = 0.18\nsamples = 20\nvalue = [18, 2]"] ;
117 -> 118 ;
119 [label="gini = 0.0\nsamples = 1\nvalue = [0, 1]"] ;
118 -> 119 ;
120 [label="X[5] <= 0.023\ngini = 0.1\nsamples = 19\nvalue = [18, 1]"] ;
118 -> 120 ;
121 [label="gini = 0.0\nsamples = 14\nvalue = [14, 0]"] ;
120 -> 121 ;
122 [label="X[5] <= 0.024\ngini = 0.32\nsamples = 5\nvalue = [4, 1]"] ;
120 -> 122 ;
123 [label="gini = 0.0\nsamples = 1\nvalue = [0, 1]"] ;
122 -> 123 ;
124 [label="gini = 0.0\nsamples = 4\nvalue = [4, 0]"] ;
122 -> 124 ;
125 [label="X[4] <= 0.029\ngini = 0.444\nsamples = 3\nvalue = [1, 2]"] ;
117 -> 125 ;
126 [label="gini = 0.0\nsamples = 2\nvalue = [0, 2]"] ;
125 -> 126 ;
127 [label="gini = 0.0\nsamples = 1\nvalue = [1, 0]"] ;
125 -> 127 ;
128 [label="X[0] <= 0.012\ngini = 0.408\nsamples = 7\nvalue = [2, 5]"] ;
116 -> 128 ;
129 [label="gini = 0.0\nsamples = 2\nvalue = [2, 0]"] ;
128 -> 129 ;
130 [label="gini = 0.0\nsamples = 5\nvalue = [0, 5]"] ;
128 -> 130 ;
131 [label="X[3] <= 0.009\ngini = 0.366\nsamples = 112\nvalue = [85, 27]"] ;
49 -> 131 ;
132 [label="X[3] <= 0.007\ngini = 0.489\nsamples = 33\nvalue = [19, 14]"] ;
131 -> 132 ;
133 [label="gini = 0.0\nsamples = 15\nvalue = [15, 0]"] ;
132 -> 133 ;
134 [label="X[2] <= 0.012\ngini = 0.346\nsamples = 18\nvalue = [4, 14]"] ;
132 -> 134 ;
135 [label="X[2] <= 0.009\ngini = 0.153\nsamples = 12\nvalue = [1, 11]"] ;
134 -> 135 ;
136 [label="X[9] <= 0.0\ngini = 0.5\nsamples = 2\nvalue = [1, 1]"] ;
135 -> 136 ;
137 [label="gini = 0.0\nsamples = 1\nvalue = [1, 0]"] ;
136 -> 137 ;
138 [label="gini = 0.0\nsamples = 1\nvalue = [0, 1]"] ;
136 -> 138 ;
139 [label="gini = 0.0\nsamples = 10\nvalue = [0, 10]"] ;
135 -> 139 ;
140 [label="X[1] <= 0.0\ngini = 0.5\nsamples = 6\nvalue = [3, 3]"] ;
134 -> 140 ;
141 [label="gini = 0.0\nsamples = 1\nvalue = [1, 0]"] ;
140 -> 141 ;
142 [label="X[9] <= 0.0\ngini = 0.48\nsamples = 5\nvalue = [2, 3]"] ;
140 -> 142 ;
143 [label="gini = 0.0\nsamples = 2\nvalue = [0, 2]"] ;
142 -> 143 ;
144 [label="X[4] <= 0.031\ngini = 0.444\nsamples = 3\nvalue = [2, 1]"] ;
142 -> 144 ;
145 [label="gini = 0.0\nsamples = 2\nvalue = [2, 0]"] ;
144 -> 145 ;
146 [label="gini = 0.0\nsamples = 1\nvalue = [0, 1]"] ;
144 -> 146 ;
147 [label="X[9] <= 0.0\ngini = 0.275\nsamples = 79\nvalue = [66, 13]"] ;
131 -> 147 ;
148 [label="X[6] <= 0.017\ngini = 0.245\nsamples = 77\nvalue = [66, 11]"] ;
147 -> 148 ;
149 [label="gini = 0.0\nsamples = 1\nvalue = [0, 1]"] ;
148 -> 149 ;
150 [label="X[0] <= 0.03\ngini = 0.229\nsamples = 76\nvalue = [66, 10]"] ;
148 -> 150 ;
151 [label="X[2] <= 0.011\ngini = 0.051\nsamples = 38\nvalue = [37, 1]"] ;
150 -> 151 ;
152 [label="X[1] <= 0.001\ngini = 0.375\nsamples = 4\nvalue = [3, 1]"] ;
151 -> 152 ;
153 [label="gini = 0.0\nsamples = 3\nvalue = [3, 0]"] ;
152 -> 153 ;
154 [label="gini = 0.0\nsamples = 1\nvalue = [0, 1]"] ;
152 -> 154 ;
155 [label="gini = 0.0\nsamples = 34\nvalue = [34, 0]"] ;
151 -> 155 ;
156 [label="X[7] <= 0.014\ngini = 0.361\nsamples = 38\nvalue = [29, 9]"] ;
150 -> 156 ;
157 [label="X[4] <= 0.016\ngini = 0.264\nsamples = 32\nvalue = [27, 5]"] ;
156 -> 157 ;
158 [label="X[7] <= 0.007\ngini = 0.5\nsamples = 6\nvalue = [3, 3]"] ;
157 -> 158 ;
159 [label="gini = 0.0\nsamples = 3\nvalue = [0, 3]"] ;
158 -> 159 ;
160 [label="gini = 0.0\nsamples = 3\nvalue = [3, 0]"] ;
158 -> 160 ;
161 [label="X[3] <= 0.025\ngini = 0.142\nsamples = 26\nvalue = [24, 2]"] ;
157 -> 161 ;
162 [label="X[1] <= 0.0\ngini = 0.077\nsamples = 25\nvalue = [24, 1]"] ;
161 -> 162 ;
163 [label="X[0] <= 0.031\ngini = 0.245\nsamples = 7\nvalue = [6, 1]"] ;
162 -> 163 ;
164 [label="X[3] <= 0.015\ngini = 0.5\nsamples = 2\nvalue = [1, 1]"] ;
163 -> 164 ;
165 [label="gini = 0.0\nsamples = 1\nvalue = [1, 0]"] ;
164 -> 165 ;
166 [label="gini = 0.0\nsamples = 1\nvalue = [0, 1]"] ;
164 -> 166 ;
167 [label="gini = 0.0\nsamples = 5\nvalue = [5, 0]"] ;
163 -> 167 ;
168 [label="gini = 0.0\nsamples = 18\nvalue = [18, 0]"] ;
162 -> 168 ;
169 [label="gini = 0.0\nsamples = 1\nvalue = [0, 1]"] ;
161 -> 169 ;
170 [label="X[1] <= 0.002\ngini = 0.444\nsamples = 6\nvalue = [2, 4]"] ;
156 -> 170 ;
171 [label="gini = 0.0\nsamples = 4\nvalue = [0, 4]"] ;
170 -> 171 ;
172 [label="gini = 0.0\nsamples = 2\nvalue = [2, 0]"] ;
170 -> 172 ;
173 [label="gini = 0.0\nsamples = 2\nvalue = [0, 2]"] ;
147 -> 173 ;
174 [label="gini = 0.0\nsamples = 4\nvalue = [0, 4]"] ;
42 -> 174 ;
175 [label="X[0] <= 0.014\ngini = 0.491\nsamples = 486\nvalue = [276, 210]"] ;
41 -> 175 ;
176 [label="X[2] <= 0.013\ngini = 0.447\nsamples = 154\nvalue = [52, 102]"] ;
175 -> 176 ;
177 [label="X[6] <= 0.022\ngini = 0.496\nsamples = 97\nvalue = [44, 53]"] ;
176 -> 177 ;
178 [label="X[7] <= 0.007\ngini = 0.494\nsamples = 63\nvalue = [35, 28]"] ;
177 -> 178 ;
179 [label="X[0] <= 0.013\ngini = 0.298\nsamples = 11\nvalue = [2, 9]"] ;
178 -> 179 ;
180 [label="X[8] <= 0.001\ngini = 0.18\nsamples = 10\nvalue = [1, 9]"] ;
179 -> 180 ;
181 [label="X[0] <= 0.008\ngini = 0.5\nsamples = 2\nvalue = [1, 1]"] ;
180 -> 181 ;
182 [label="gini = 0.0\nsamples = 1\nvalue = [1, 0]"] ;
181 -> 182 ;
183 [label="gini = 0.0\nsamples = 1\nvalue = [0, 1]"] ;
181 -> 183 ;
184 [label="gini = 0.0\nsamples = 8\nvalue = [0, 8]"] ;
180 -> 184 ;
185 [label="gini = 0.0\nsamples = 1\nvalue = [1, 0]"] ;
179 -> 185 ;
186 [label="X[0] <= 0.005\ngini = 0.464\nsamples = 52\nvalue = [33, 19]"] ;
178 -> 186 ;
187 [label="X[5] <= 0.007\ngini = 0.142\nsamples = 13\nvalue = [12, 1]"] ;
186 -> 187 ;
188 [label="gini = 0.0\nsamples = 1\nvalue = [0, 1]"] ;
187 -> 188 ;
189 [label="gini = 0.0\nsamples = 12\nvalue = [12, 0]"] ;
187 -> 189 ;
190 [label="X[4] <= 0.022\ngini = 0.497\nsamples = 39\nvalue = [21, 18]"] ;
186 -> 190 ;
191 [label="X[6] <= 0.007\ngini = 0.458\nsamples = 31\nvalue = [20, 11]"] ;
190 -> 191 ;
192 [label="X[8] <= 0.0\ngini = 0.444\nsamples = 9\nvalue = [3, 6]"] ;
191 -> 192 ;
193 [label="gini = 0.0\nsamples = 2\nvalue = [2, 0]"] ;
192 -> 193 ;
194 [label="X[7] <= 0.041\ngini = 0.245\nsamples = 7\nvalue = [1, 6]"] ;
192 -> 194 ;
195 [label="gini = 0.0\nsamples = 6\nvalue = [0, 6]"] ;
194 -> 195 ;
196 [label="gini = 0.0\nsamples = 1\nvalue = [1, 0]"] ;
194 -> 196 ;
197 [label="X[2] <= 0.011\ngini = 0.351\nsamples = 22\nvalue = [17, 5]"] ;
191 -> 197 ;
198 [label="gini = 0.0\nsamples = 2\nvalue = [0, 2]"] ;
197 -> 198 ;
199 [label="X[1] <= 0.011\ngini = 0.255\nsamples = 20\nvalue = [17, 3]"] ;
197 -> 199 ;
200 [label="gini = 0.0\nsamples = 14\nvalue = [14, 0]"] ;
199 -> 200 ;
201 [label="X[5] <= 0.014\ngini = 0.5\nsamples = 6\nvalue = [3, 3]"] ;
199 -> 201 ;
202 [label="gini = 0.0\nsamples = 3\nvalue = [3, 0]"] ;
201 -> 202 ;
203 [label="gini = 0.0\nsamples = 3\nvalue = [0, 3]"] ;
201 -> 203 ;
204 [label="X[5] <= 0.021\ngini = 0.219\nsamples = 8\nvalue = [1, 7]"] ;
190 -> 204 ;
205 [label="gini = 0.0\nsamples = 7\nvalue = [0, 7]"] ;
204 -> 205 ;
206 [label="gini = 0.0\nsamples = 1\nvalue = [1, 0]"] ;
204 -> 206 ;
207 [label="X[9] <= 0.0\ngini = 0.389\nsamples = 34\nvalue = [9, 25]"] ;
177 -> 207 ;
208 [label="X[9] <= 0.0\ngini = 0.476\nsamples = 23\nvalue = [9, 14]"] ;
207 -> 208 ;
209 [label="X[9] <= 0.0\ngini = 0.26\nsamples = 13\nvalue = [2, 11]"] ;
208 -> 209 ;
210 [label="gini = 0.0\nsamples = 1\nvalue = [1, 0]"] ;
209 -> 210 ;
211 [label="X[1] <= 0.005\ngini = 0.153\nsamples = 12\nvalue = [1, 11]"] ;
209 -> 211 ;
212 [label="X[4] <= 0.013\ngini = 0.444\nsamples = 3\nvalue = [1, 2]"] ;
211 -> 212 ;
213 [label="gini = 0.0\nsamples = 1\nvalue = [1, 0]"] ;
212 -> 213 ;
214 [label="gini = 0.0\nsamples = 2\nvalue = [0, 2]"] ;
212 -> 214 ;
215 [label="gini = 0.0\nsamples = 9\nvalue = [0, 9]"] ;
211 -> 215 ;
216 [label="X[8] <= 0.001\ngini = 0.42\nsamples = 10\nvalue = [7, 3]"] ;
208 -> 216 ;
217 [label="X[2] <= 0.012\ngini = 0.444\nsamples = 3\nvalue = [1, 2]"] ;
216 -> 217 ;
218 [label="gini = 0.0\nsamples = 2\nvalue = [0, 2]"] ;
217 -> 218 ;
219 [label="gini = 0.0\nsamples = 1\nvalue = [1, 0]"] ;
217 -> 219 ;
220 [label="X[0] <= 0.003\ngini = 0.245\nsamples = 7\nvalue = [6, 1]"] ;
216 -> 220 ;
221 [label="gini = 0.0\nsamples = 1\nvalue = [0, 1]"] ;
220 -> 221 ;
222 [label="gini = 0.0\nsamples = 6\nvalue = [6, 0]"] ;
220 -> 222 ;
223 [label="gini = 0.0\nsamples = 11\nvalue = [0, 11]"] ;
207 -> 223 ;
224 [label="X[1] <= 0.004\ngini = 0.241\nsamples = 57\nvalue = [8, 49]"] ;
176 -> 224 ;
225 [label="X[0] <= 0.004\ngini = 0.444\nsamples = 6\nvalue = [4, 2]"] ;
224 -> 225 ;
226 [label="gini = 0.0\nsamples = 2\nvalue = [0, 2]"] ;
225 -> 226 ;
227 [label="gini = 0.0\nsamples = 4\nvalue = [4, 0]"] ;
225 -> 227 ;
228 [label="X[8] <= 0.001\ngini = 0.145\nsamples = 51\nvalue = [4, 47]"] ;
224 -> 228 ;
229 [label="X[5] <= 0.006\ngini = 0.463\nsamples = 11\nvalue = [4, 7]"] ;
228 -> 229 ;
230 [label="gini = 0.0\nsamples = 2\nvalue = [2, 0]"] ;
229 -> 230 ;
231 [label="X[1] <= 0.007\ngini = 0.346\nsamples = 9\nvalue = [2, 7]"] ;
229 -> 231 ;
232 [label="X[8] <= 0.0\ngini = 0.444\nsamples = 3\nvalue = [2, 1]"] ;
231 -> 232 ;
233 [label="gini = 0.0\nsamples = 2\nvalue = [2, 0]"] ;
232 -> 233 ;
234 [label="gini = 0.0\nsamples = 1\nvalue = [0, 1]"] ;
232 -> 234 ;
235 [label="gini = 0.0\nsamples = 6\nvalue = [0, 6]"] ;
231 -> 235 ;
236 [label="gini = 0.0\nsamples = 40\nvalue = [0, 40]"] ;
228 -> 236 ;
237 [label="X[2] <= 0.013\ngini = 0.439\nsamples = 332\nvalue = [224, 108]"] ;
175 -> 237 ;
238 [label="X[6] <= 0.023\ngini = 0.365\nsamples = 221\nvalue = [168, 53]"] ;
237 -> 238 ;
239 [label="X[2] <= 0.01\ngini = 0.232\nsamples = 127\nvalue = [110, 17]"] ;
238 -> 239 ;
240 [label="gini = 0.0\nsamples = 2\nvalue = [0, 2]"] ;
239 -> 240 ;
241 [label="X[0] <= 0.017\ngini = 0.211\nsamples = 125\nvalue = [110, 15]"] ;
239 -> 241 ;
242 [label="X[0] <= 0.016\ngini = 0.48\nsamples = 10\nvalue = [6, 4]"] ;
241 -> 242 ;
243 [label="X[9] <= 0.0\ngini = 0.245\nsamples = 7\nvalue = [6, 1]"] ;
242 -> 243 ;
244 [label="gini = 0.0\nsamples = 1\nvalue = [0, 1]"] ;
243 -> 244 ;
245 [label="gini = 0.0\nsamples = 6\nvalue = [6, 0]"] ;
243 -> 245 ;
246 [label="gini = 0.0\nsamples = 3\nvalue = [0, 3]"] ;
242 -> 246 ;
247 [label="X[8] <= 0.013\ngini = 0.173\nsamples = 115\nvalue = [104, 11]"] ;
241 -> 247 ;
248 [label="X[2] <= 0.013\ngini = 0.16\nsamples = 114\nvalue = [104, 10]"] ;
247 -> 248 ;
249 [label="X[9] <= 0.0\ngini = 0.123\nsamples = 106\nvalue = [99, 7]"] ;
248 -> 249 ;
250 [label="X[4] <= 0.0\ngini = 0.065\nsamples = 89\nvalue = [86, 3]"] ;
249 -> 250 ;
251 [label="X[0] <= 0.026\ngini = 0.5\nsamples = 2\nvalue = [1, 1]"] ;
250 -> 251 ;
252 [label="gini = 0.0\nsamples = 1\nvalue = [1, 0]"] ;
251 -> 252 ;
253 [label="gini = 0.0\nsamples = 1\nvalue = [0, 1]"] ;
251 -> 253 ;
254 [label="X[0] <= 0.029\ngini = 0.045\nsamples = 87\nvalue = [85, 2]"] ;
250 -> 254 ;
255 [label="X[8] <= 0.007\ngini = 0.024\nsamples = 83\nvalue = [82, 1]"] ;
254 -> 255 ;
256 [label="gini = 0.0\nsamples = 61\nvalue = [61, 0]"] ;
255 -> 256 ;
257 [label="X[4] <= 0.025\ngini = 0.087\nsamples = 22\nvalue = [21, 1]"] ;
255 -> 257 ;
258 [label="gini = 0.0\nsamples = 16\nvalue = [16, 0]"] ;
257 -> 258 ;
259 [label="X[4] <= 0.026\ngini = 0.278\nsamples = 6\nvalue = [5, 1]"] ;
257 -> 259 ;
260 [label="gini = 0.0\nsamples = 1\nvalue = [0, 1]"] ;
259 -> 260 ;
261 [label="gini = 0.0\nsamples = 5\nvalue = [5, 0]"] ;
259 -> 261 ;
262 [label="X[0] <= 0.029\ngini = 0.375\nsamples = 4\nvalue = [3, 1]"] ;
254 -> 262 ;
263 [label="gini = 0.0\nsamples = 1\nvalue = [0, 1]"] ;
262 -> 263 ;
264 [label="gini = 0.0\nsamples = 3\nvalue = [3, 0]"] ;
262 -> 264 ;
265 [label="X[4] <= 0.022\ngini = 0.36\nsamples = 17\nvalue = [13, 4]"] ;
249 -> 265 ;
266 [label="X[8] <= 0.007\ngini = 0.142\nsamples = 13\nvalue = [12, 1]"] ;
265 -> 266 ;
267 [label="gini = 0.0\nsamples = 11\nvalue = [11, 0]"] ;
266 -> 267 ;
268 [label="X[2] <= 0.011\ngini = 0.5\nsamples = 2\nvalue = [1, 1]"] ;
266 -> 268 ;
269 [label="gini = 0.0\nsamples = 1\nvalue = [0, 1]"] ;
268 -> 269 ;
270 [label="gini = 0.0\nsamples = 1\nvalue = [1, 0]"] ;
268 -> 270 ;
271 [label="X[7] <= 0.013\ngini = 0.375\nsamples = 4\nvalue = [1, 3]"] ;
265 -> 271 ;
272 [label="gini = 0.0\nsamples = 3\nvalue = [0, 3]"] ;
271 -> 272 ;
273 [label="gini = 0.0\nsamples = 1\nvalue = [1, 0]"] ;
271 -> 273 ;
274 [label="X[9] <= 0.0\ngini = 0.469\nsamples = 8\nvalue = [5, 3]"] ;
248 -> 274 ;
275 [label="gini = 0.0\nsamples = 2\nvalue = [0, 2]"] ;
274 -> 275 ;
276 [label="X[5] <= 0.012\ngini = 0.278\nsamples = 6\nvalue = [5, 1]"] ;
274 -> 276 ;
277 [label="X[5] <= 0.002\ngini = 0.5\nsamples = 2\nvalue = [1, 1]"] ;
276 -> 277 ;
278 [label="gini = 0.0\nsamples = 1\nvalue = [1, 0]"] ;
277 -> 278 ;
279 [label="gini = 0.0\nsamples = 1\nvalue = [0, 1]"] ;
277 -> 279 ;
280 [label="gini = 0.0\nsamples = 4\nvalue = [4, 0]"] ;
276 -> 280 ;
281 [label="gini = 0.0\nsamples = 1\nvalue = [0, 1]"] ;
247 -> 281 ;
282 [label="X[3] <= 0.006\ngini = 0.473\nsamples = 94\nvalue = [58, 36]"] ;
238 -> 282 ;
283 [label="X[5] <= 0.019\ngini = 0.124\nsamples = 15\nvalue = [14, 1]"] ;
282 -> 283 ;
284 [label="X[4] <= 0.031\ngini = 0.5\nsamples = 2\nvalue = [1, 1]"] ;
283 -> 284 ;
285 [label="gini = 0.0\nsamples = 1\nvalue = [0, 1]"] ;
284 -> 285 ;
286 [label="gini = 0.0\nsamples = 1\nvalue = [1, 0]"] ;
284 -> 286 ;
287 [label="gini = 0.0\nsamples = 13\nvalue = [13, 0]"] ;
283 -> 287 ;
288 [label="X[6] <= 0.027\ngini = 0.494\nsamples = 79\nvalue = [44, 35]"] ;
282 -> 288 ;
289 [label="X[5] <= 0.02\ngini = 0.499\nsamples = 63\nvalue = [30, 33]"] ;
288 -> 289 ;
290 [label="gini = 0.0\nsamples = 6\nvalue = [6, 0]"] ;
289 -> 290 ;
291 [label="X[2] <= 0.013\ngini = 0.488\nsamples = 57\nvalue = [24, 33]"] ;
289 -> 291 ;
292 [label="X[1] <= 0.008\ngini = 0.475\nsamples = 54\nvalue = [21, 33]"] ;
291 -> 292 ;
293 [label="X[2] <= 0.011\ngini = 0.5\nsamples = 37\nvalue = [18, 19]"] ;
292 -> 293 ;
294 [label="X[8] <= 0.0\ngini = 0.198\nsamples = 9\nvalue = [8, 1]"] ;
293 -> 294 ;
295 [label="gini = 0.0\nsamples = 7\nvalue = [7, 0]"] ;
294 -> 295 ;
296 [label="X[7] <= 0.01\ngini = 0.5\nsamples = 2\nvalue = [1, 1]"] ;
294 -> 296 ;
297 [label="gini = 0.0\nsamples = 1\nvalue = [1, 0]"] ;
296 -> 297 ;
298 [label="gini = 0.0\nsamples = 1\nvalue = [0, 1]"] ;
296 -> 298 ;
299 [label="X[0] <= 0.027\ngini = 0.459\nsamples = 28\nvalue = [10, 18]"] ;
293 -> 299 ;
300 [label="gini = 0.0\nsamples = 10\nvalue = [0, 10]"] ;
299 -> 300 ;
301 [label="X[4] <= 0.031\ngini = 0.494\nsamples = 18\nvalue = [10, 8]"] ;
299 -> 301 ;
302 [label="X[8] <= 0.002\ngini = 0.375\nsamples = 12\nvalue = [9, 3]"] ;
301 -> 302 ;
303 [label="X[8] <= 0.0\ngini = 0.5\nsamples = 6\nvalue = [3, 3]"] ;
302 -> 303 ;
304 [label="gini = 0.0\nsamples = 2\nvalue = [2, 0]"] ;
303 -> 304 ;
305 [label="X[3] <= 0.015\ngini = 0.375\nsamples = 4\nvalue = [1, 3]"] ;
303 -> 305 ;
306 [label="gini = 0.0\nsamples = 3\nvalue = [0, 3]"] ;
305 -> 306 ;
307 [label="gini = 0.0\nsamples = 1\nvalue = [1, 0]"] ;
305 -> 307 ;
308 [label="gini = 0.0\nsamples = 6\nvalue = [6, 0]"] ;
302 -> 308 ;
309 [label="X[0] <= 0.03\ngini = 0.278\nsamples = 6\nvalue = [1, 5]"] ;
301 -> 309 ;
310 [label="gini = 0.0\nsamples = 4\nvalue = [0, 4]"] ;
309 -> 310 ;
311 [label="X[4] <= 0.032\ngini = 0.5\nsamples = 2\nvalue = [1, 1]"] ;
309 -> 311 ;
312 [label="gini = 0.0\nsamples = 1\nvalue = [1, 0]"] ;
311 -> 312 ;
313 [label="gini = 0.0\nsamples = 1\nvalue = [0, 1]"] ;
311 -> 313 ;
314 [label="X[4] <= 0.008\ngini = 0.291\nsamples = 17\nvalue = [3, 14]"] ;
292 -> 314 ;
315 [label="gini = 0.0\nsamples = 2\nvalue = [2, 0]"] ;
314 -> 315 ;
316 [label="X[3] <= 0.023\ngini = 0.124\nsamples = 15\nvalue = [1, 14]"] ;
314 -> 316 ;
317 [label="gini = 0.0\nsamples = 14\nvalue = [0, 14]"] ;
316 -> 317 ;
318 [label="gini = 0.0\nsamples = 1\nvalue = [1, 0]"] ;
316 -> 318 ;
319 [label="gini = 0.0\nsamples = 3\nvalue = [3, 0]"] ;
291 -> 319 ;
320 [label="X[0] <= 0.031\ngini = 0.219\nsamples = 16\nvalue = [14, 2]"] ;
288 -> 320 ;
321 [label="gini = 0.0\nsamples = 13\nvalue = [13, 0]"] ;
320 -> 321 ;
322 [label="X[2] <= 0.01\ngini = 0.444\nsamples = 3\nvalue = [1, 2]"] ;
320 -> 322 ;
323 [label="gini = 0.0\nsamples = 1\nvalue = [1, 0]"] ;
322 -> 323 ;
324 [label="gini = 0.0\nsamples = 2\nvalue = [0, 2]"] ;
322 -> 324 ;
325 [label="X[5] <= 0.017\ngini = 0.5\nsamples = 111\nvalue = [56, 55]"] ;
237 -> 325 ;
326 [label="X[1] <= 0.009\ngini = 0.426\nsamples = 39\nvalue = [27, 12]"] ;
325 -> 326 ;
327 [label="X[6] <= 0.02\ngini = 0.172\nsamples = 21\nvalue = [19, 2]"] ;
326 -> 327 ;
328 [label="gini = 0.0\nsamples = 15\nvalue = [15, 0]"] ;
327 -> 328 ;
329 [label="X[1] <= 0.006\ngini = 0.444\nsamples = 6\nvalue = [4, 2]"] ;
327 -> 329 ;
330 [label="X[1] <= 0.003\ngini = 0.444\nsamples = 3\nvalue = [1, 2]"] ;
329 -> 330 ;
331 [label="gini = 0.0\nsamples = 1\nvalue = [1, 0]"] ;
330 -> 331 ;
332 [label="gini = 0.0\nsamples = 2\nvalue = [0, 2]"] ;
330 -> 332 ;
333 [label="gini = 0.0\nsamples = 3\nvalue = [3, 0]"] ;
329 -> 333 ;
334 [label="X[8] <= 0.001\ngini = 0.494\nsamples = 18\nvalue = [8, 10]"] ;
326 -> 334 ;
335 [label="X[5] <= 0.004\ngini = 0.375\nsamples = 8\nvalue = [6, 2]"] ;
334 -> 335 ;
336 [label="X[3] <= 0.015\ngini = 0.444\nsamples = 3\nvalue = [1, 2]"] ;
335 -> 336 ;
337 [label="gini = 0.0\nsamples = 1\nvalue = [1, 0]"] ;
336 -> 337 ;
338 [label="gini = 0.0\nsamples = 2\nvalue = [0, 2]"] ;
336 -> 338 ;
339 [label="gini = 0.0\nsamples = 5\nvalue = [5, 0]"] ;
335 -> 339 ;
340 [label="X[3] <= 0.002\ngini = 0.32\nsamples = 10\nvalue = [2, 8]"] ;
334 -> 340 ;
341 [label="gini = 0.0\nsamples = 1\nvalue = [1, 0]"] ;
340 -> 341 ;
342 [label="X[3] <= 0.023\ngini = 0.198\nsamples = 9\nvalue = [1, 8]"] ;
340 -> 342 ;
343 [label="gini = 0.0\nsamples = 8\nvalue = [0, 8]"] ;
342 -> 343 ;
344 [label="gini = 0.0\nsamples = 1\nvalue = [1, 0]"] ;
342 -> 344 ;
345 [label="X[8] <= 0.0\ngini = 0.481\nsamples = 72\nvalue = [29, 43]"] ;
325 -> 345 ;
346 [label="gini = 0.0\nsamples = 5\nvalue = [5, 0]"] ;
345 -> 346 ;
347 [label="X[0] <= 0.026\ngini = 0.46\nsamples = 67\nvalue = [24, 43]"] ;
345 -> 347 ;
348 [label="X[8] <= 0.0\ngini = 0.411\nsamples = 52\nvalue = [15, 37]"] ;
347 -> 348 ;
349 [label="X[0] <= 0.023\ngini = 0.5\nsamples = 18\nvalue = [9, 9]"] ;
348 -> 349 ;
350 [label="X[1] <= 0.008\ngini = 0.426\nsamples = 13\nvalue = [9, 4]"] ;
349 -> 350 ;
351 [label="X[2] <= 0.014\ngini = 0.494\nsamples = 9\nvalue = [5, 4]"] ;
350 -> 351 ;
352 [label="X[7] <= 0.007\ngini = 0.408\nsamples = 7\nvalue = [5, 2]"] ;
351 -> 352 ;
353 [label="X[6] <= 0.026\ngini = 0.444\nsamples = 3\nvalue = [1, 2]"] ;
352 -> 353 ;
354 [label="gini = 0.0\nsamples = 2\nvalue = [0, 2]"] ;
353 -> 354 ;
355 [label="gini = 0.0\nsamples = 1\nvalue = [1, 0]"] ;
353 -> 355 ;
356 [label="gini = 0.0\nsamples = 4\nvalue = [4, 0]"] ;
352 -> 356 ;
357 [label="gini = 0.0\nsamples = 2\nvalue = [0, 2]"] ;
351 -> 357 ;
358 [label="gini = 0.0\nsamples = 4\nvalue = [4, 0]"] ;
350 -> 358 ;
359 [label="gini = 0.0\nsamples = 5\nvalue = [0, 5]"] ;
349 -> 359 ;
360 [label="X[3] <= 0.023\ngini = 0.291\nsamples = 34\nvalue = [6, 28]"] ;
348 -> 360 ;
361 [label="X[5] <= 0.021\ngini = 0.185\nsamples = 29\nvalue = [3, 26]"] ;
360 -> 361 ;
362 [label="X[5] <= 0.02\ngini = 0.375\nsamples = 12\nvalue = [3, 9]"] ;
361 -> 362 ;
363 [label="X[1] <= 0.005\ngini = 0.198\nsamples = 9\nvalue = [1, 8]"] ;
362 -> 363 ;
364 [label="gini = 0.0\nsamples = 1\nvalue = [1, 0]"] ;
363 -> 364 ;
365 [label="gini = 0.0\nsamples = 8\nvalue = [0, 8]"] ;
363 -> 365 ;
366 [label="X[7] <= 0.007\ngini = 0.444\nsamples = 3\nvalue = [2, 1]"] ;
362 -> 366 ;
367 [label="gini = 0.0\nsamples = 1\nvalue = [0, 1]"] ;
366 -> 367 ;
368 [label="gini = 0.0\nsamples = 2\nvalue = [2, 0]"] ;
366 -> 368 ;
369 [label="gini = 0.0\nsamples = 17\nvalue = [0, 17]"] ;
361 -> 369 ;
370 [label="X[2] <= 0.013\ngini = 0.48\nsamples = 5\nvalue = [3, 2]"] ;
360 -> 370 ;
371 [label="gini = 0.0\nsamples = 2\nvalue = [2, 0]"] ;
370 -> 371 ;
372 [label="X[0] <= 0.022\ngini = 0.444\nsamples = 3\nvalue = [1, 2]"] ;
370 -> 372 ;
373 [label="gini = 0.0\nsamples = 2\nvalue = [0, 2]"] ;
372 -> 373 ;
374 [label="gini = 0.0\nsamples = 1\nvalue = [1, 0]"] ;
372 -> 374 ;
375 [label="X[2] <= 0.014\ngini = 0.48\nsamples = 15\nvalue = [9, 6]"] ;
347 -> 375 ;
376 [label="X[1] <= 0.004\ngini = 0.375\nsamples = 12\nvalue = [9, 3]"] ;
375 -> 376 ;
377 [label="gini = 0.0\nsamples = 2\nvalue = [0, 2]"] ;
376 -> 377 ;
378 [label="X[3] <= 0.024\ngini = 0.18\nsamples = 10\nvalue = [9, 1]"] ;
376 -> 378 ;
379 [label="gini = 0.0\nsamples = 9\nvalue = [9, 0]"] ;
378 -> 379 ;
380 [label="gini = 0.0\nsamples = 1\nvalue = [0, 1]"] ;
378 -> 380 ;
381 [label="gini = 0.0\nsamples = 3\nvalue = [0, 3]"] ;
375 -> 381 ;
382 [label="X[5] <= 0.019\ngini = 0.244\nsamples = 1848\nvalue = [1585, 263]"] ;
40 -> 382 ;
383 [label="X[3] <= 0.025\ngini = 0.211\nsamples = 1689\nvalue = [1486, 203]"] ;
382 -> 383 ;
384 [label="X[1] <= 0.006\ngini = 0.199\nsamples = 1642\nvalue = [1458, 184]"] ;
383 -> 384 ;
385 [label="X[1] <= 0.0\ngini = 0.106\nsamples = 638\nvalue = [602, 36]"] ;
384 -> 385 ;
386 [label="gini = 0.0\nsamples = 3\nvalue = [0, 3]"] ;
385 -> 386 ;
387 [label="X[4] <= 0.018\ngini = 0.099\nsamples = 635\nvalue = [602, 33]"] ;
385 -> 387 ;
388 [label="X[3] <= 0.016\ngini = 0.079\nsamples = 558\nvalue = [535, 23]"] ;
387 -> 388 ;
389 [label="X[2] <= 0.009\ngini = 0.051\nsamples = 458\nvalue = [446, 12]"] ;
388 -> 389 ;
390 [label="X[9] <= 0.001\ngini = 0.5\nsamples = 2\nvalue = [1, 1]"] ;
389 -> 390 ;
391 [label="gini = 0.0\nsamples = 1\nvalue = [0, 1]"] ;
390 -> 391 ;
392 [label="gini = 0.0\nsamples = 1\nvalue = [1, 0]"] ;
390 -> 392 ;
393 [label="X[5] <= 0.001\ngini = 0.047\nsamples = 456\nvalue = [445, 11]"] ;
389 -> 393 ;
394 [label="X[5] <= 0.001\ngini = 0.26\nsamples = 13\nvalue = [11, 2]"] ;
393 -> 394 ;
395 [label="X[0] <= 0.002\ngini = 0.153\nsamples = 12\nvalue = [11, 1]"] ;
394 -> 395 ;
396 [label="gini = 0.0\nsamples = 1\nvalue = [0, 1]"] ;
395 -> 396 ;
397 [label="gini = 0.0\nsamples = 11\nvalue = [11, 0]"] ;
395 -> 397 ;
398 [label="gini = 0.0\nsamples = 1\nvalue = [0, 1]"] ;
394 -> 398 ;
399 [label="X[2] <= 0.015\ngini = 0.04\nsamples = 443\nvalue = [434, 9]"] ;
393 -> 399 ;
400 [label="X[3] <= 0.007\ngini = 0.036\nsamples = 435\nvalue = [427, 8]"] ;
399 -> 400 ;
401 [label="X[2] <= 0.01\ngini = 0.009\nsamples = 225\nvalue = [224, 1]"] ;
400 -> 401 ;
402 [label="X[1] <= 0.001\ngini = 0.153\nsamples = 12\nvalue = [11, 1]"] ;
401 -> 402 ;
403 [label="gini = 0.0\nsamples = 1\nvalue = [0, 1]"] ;
402 -> 403 ;
404 [label="gini = 0.0\nsamples = 11\nvalue = [11, 0]"] ;
402 -> 404 ;
405 [label="gini = 0.0\nsamples = 213\nvalue = [213, 0]"] ;
401 -> 405 ;
406 [label="X[3] <= 0.009\ngini = 0.064\nsamples = 210\nvalue = [203, 7]"] ;
400 -> 406 ;
407 [label="X[4] <= 0.006\ngini = 0.5\nsamples = 2\nvalue = [1, 1]"] ;
406 -> 407 ;
408 [label="gini = 0.0\nsamples = 1\nvalue = [1, 0]"] ;
407 -> 408 ;
409 [label="gini = 0.0\nsamples = 1\nvalue = [0, 1]"] ;
407 -> 409 ;
410 [label="X[6] <= 0.001\ngini = 0.056\nsamples = 208\nvalue = [202, 6]"] ;
406 -> 410 ;
411 [label="X[5] <= 0.01\ngini = 0.444\nsamples = 3\nvalue = [2, 1]"] ;
410 -> 411 ;
412 [label="gini = 0.0\nsamples = 2\nvalue = [2, 0]"] ;
411 -> 412 ;
413 [label="gini = 0.0\nsamples = 1\nvalue = [0, 1]"] ;
411 -> 413 ;
414 [label="X[1] <= 0.006\ngini = 0.048\nsamples = 205\nvalue = [200, 5]"] ;
410 -> 414 ;
415 [label="X[0] <= 0.01\ngini = 0.039\nsamples = 199\nvalue = [195, 4]"] ;
414 -> 415 ;
416 [label="X[0] <= 0.01\ngini = 0.078\nsamples = 99\nvalue = [95, 4]"] ;
415 -> 416 ;
417 [label="X[0] <= 0.008\ngini = 0.059\nsamples = 98\nvalue = [95, 3]"] ;
416 -> 417 ;
418 [label="gini = 0.0\nsamples = 82\nvalue = [82, 0]"] ;
417 -> 418 ;
419 [label="X[8] <= 0.002\ngini = 0.305\nsamples = 16\nvalue = [13, 3]"] ;
417 -> 419 ;
420 [label="gini = 0.0\nsamples = 9\nvalue = [9, 0]"] ;
419 -> 420 ;
421 [label="X[2] <= 0.013\ngini = 0.49\nsamples = 7\nvalue = [4, 3]"] ;
419 -> 421 ;
422 [label="X[5] <= 0.017\ngini = 0.375\nsamples = 4\nvalue = [1, 3]"] ;
421 -> 422 ;
423 [label="gini = 0.0\nsamples = 3\nvalue = [0, 3]"] ;
422 -> 423 ;
424 [label="gini = 0.0\nsamples = 1\nvalue = [1, 0]"] ;
422 -> 424 ;
425 [label="gini = 0.0\nsamples = 3\nvalue = [3, 0]"] ;
421 -> 425 ;
426 [label="gini = 0.0\nsamples = 1\nvalue = [0, 1]"] ;
416 -> 426 ;
427 [label="gini = 0.0\nsamples = 100\nvalue = [100, 0]"] ;
415 -> 427 ;
428 [label="X[4] <= 0.008\ngini = 0.278\nsamples = 6\nvalue = [5, 1]"] ;
414 -> 428 ;
429 [label="gini = 0.0\nsamples = 5\nvalue = [5, 0]"] ;
428 -> 429 ;
430 [label="gini = 0.0\nsamples = 1\nvalue = [0, 1]"] ;
428 -> 430 ;
431 [label="X[0] <= 0.013\ngini = 0.219\nsamples = 8\nvalue = [7, 1]"] ;
399 -> 431 ;
432 [label="gini = 0.0\nsamples = 7\nvalue = [7, 0]"] ;
431 -> 432 ;
433 [label="gini = 0.0\nsamples = 1\nvalue = [0, 1]"] ;
431 -> 433 ;
434 [label="X[3] <= 0.017\ngini = 0.196\nsamples = 100\nvalue = [89, 11]"] ;
388 -> 434 ;
435 [label="gini = 0.0\nsamples = 1\nvalue = [0, 1]"] ;
434 -> 435 ;
436 [label="X[2] <= 0.013\ngini = 0.182\nsamples = 99\nvalue = [89, 10]"] ;
434 -> 436 ;
437 [label="gini = 0.0\nsamples = 42\nvalue = [42, 0]"] ;
436 -> 437 ;
438 [label="X[4] <= 0.001\ngini = 0.289\nsamples = 57\nvalue = [47, 10]"] ;
436 -> 438 ;
439 [label="X[6] <= 0.009\ngini = 0.5\nsamples = 8\nvalue = [4, 4]"] ;
438 -> 439 ;
440 [label="gini = 0.0\nsamples = 4\nvalue = [4, 0]"] ;
439 -> 440 ;
441 [label="gini = 0.0\nsamples = 4\nvalue = [0, 4]"] ;
439 -> 441 ;
442 [label="X[6] <= 0.007\ngini = 0.215\nsamples = 49\nvalue = [43, 6]"] ;
438 -> 442 ;
443 [label="X[2] <= 0.014\ngini = 0.444\nsamples = 12\nvalue = [8, 4]"] ;
442 -> 443 ;
444 [label="gini = 0.0\nsamples = 2\nvalue = [0, 2]"] ;
443 -> 444 ;
445 [label="X[0] <= 0.006\ngini = 0.32\nsamples = 10\nvalue = [8, 2]"] ;
443 -> 445 ;
446 [label="gini = 0.0\nsamples = 7\nvalue = [7, 0]"] ;
445 -> 446 ;
447 [label="X[4] <= 0.008\ngini = 0.444\nsamples = 3\nvalue = [1, 2]"] ;
445 -> 447 ;
448 [label="gini = 0.0\nsamples = 2\nvalue = [0, 2]"] ;
447 -> 448 ;
449 [label="gini = 0.0\nsamples = 1\nvalue = [1, 0]"] ;
447 -> 449 ;
450 [label="X[5] <= 0.005\ngini = 0.102\nsamples = 37\nvalue = [35, 2]"] ;
442 -> 450 ;
451 [label="X[7] <= 0.013\ngini = 0.346\nsamples = 9\nvalue = [7, 2]"] ;
450 -> 451 ;
452 [label="X[8] <= 0.004\ngini = 0.444\nsamples = 3\nvalue = [1, 2]"] ;
451 -> 452 ;
453 [label="gini = 0.0\nsamples = 2\nvalue = [0, 2]"] ;
452 -> 453 ;
454 [label="gini = 0.0\nsamples = 1\nvalue = [1, 0]"] ;
452 -> 454 ;
455 [label="gini = 0.0\nsamples = 6\nvalue = [6, 0]"] ;
451 -> 455 ;
456 [label="gini = 0.0\nsamples = 28\nvalue = [28, 0]"] ;
450 -> 456 ;
457 [label="X[4] <= 0.018\ngini = 0.226\nsamples = 77\nvalue = [67, 10]"] ;
387 -> 457 ;
458 [label="gini = 0.0\nsamples = 2\nvalue = [0, 2]"] ;
457 -> 458 ;
459 [label="X[8] <= 0.014\ngini = 0.191\nsamples = 75\nvalue = [67, 8]"] ;
457 -> 459 ;
460 [label="X[6] <= 0.005\ngini = 0.151\nsamples = 73\nvalue = [67, 6]"] ;
459 -> 460 ;
461 [label="X[0] <= 0.018\ngini = 0.444\nsamples = 6\nvalue = [4, 2]"] ;
460 -> 461 ;
462 [label="gini = 0.0\nsamples = 2\nvalue = [0, 2]"] ;
461 -> 462 ;
463 [label="gini = 0.0\nsamples = 4\nvalue = [4, 0]"] ;
461 -> 463 ;
464 [label="X[1] <= 0.0\ngini = 0.112\nsamples = 67\nvalue = [63, 4]"] ;
460 -> 464 ;
465 [label="X[5] <= 0.019\ngini = 0.444\nsamples = 6\nvalue = [4, 2]"] ;
464 -> 465 ;
466 [label="gini = 0.0\nsamples = 4\nvalue = [4, 0]"] ;
465 -> 466 ;
467 [label="gini = 0.0\nsamples = 2\nvalue = [0, 2]"] ;
465 -> 467 ;
468 [label="X[1] <= 0.006\ngini = 0.063\nsamples = 61\nvalue = [59, 2]"] ;
464 -> 468 ;
469 [label="X[6] <= 0.025\ngini = 0.033\nsamples = 59\nvalue = [58, 1]"] ;
468 -> 469 ;
470 [label="gini = 0.0\nsamples = 56\nvalue = [56, 0]"] ;
469 -> 470 ;
471 [label="X[5] <= 0.01\ngini = 0.444\nsamples = 3\nvalue = [2, 1]"] ;
469 -> 471 ;
472 [label="gini = 0.0\nsamples = 2\nvalue = [2, 0]"] ;
471 -> 472 ;
473 [label="gini = 0.0\nsamples = 1\nvalue = [0, 1]"] ;
471 -> 473 ;
474 [label="X[9] <= 0.001\ngini = 0.5\nsamples = 2\nvalue = [1, 1]"] ;
468 -> 474 ;
475 [label="gini = 0.0\nsamples = 1\nvalue = [1, 0]"] ;
474 -> 475 ;
476 [label="gini = 0.0\nsamples = 1\nvalue = [0, 1]"] ;
474 -> 476 ;
477 [label="gini = 0.0\nsamples = 2\nvalue = [0, 2]"] ;
459 -> 477 ;
478 [label="X[9] <= 0.002\ngini = 0.251\nsamples = 1004\nvalue = [856, 148]"] ;
384 -> 478 ;
479 [label="X[8] <= 0.022\ngini = 0.361\nsamples = 359\nvalue = [274, 85]"] ;
478 -> 479 ;
480 [label="X[8] <= 0.002\ngini = 0.345\nsamples = 348\nvalue = [271, 77]"] ;
479 -> 480 ;
481 [label="X[8] <= 0.002\ngini = 0.455\nsamples = 103\nvalue = [67, 36]"] ;
480 -> 481 ;
482 [label="X[2] <= 0.013\ngini = 0.43\nsamples = 96\nvalue = [66, 30]"] ;
481 -> 482 ;
483 [label="X[0] <= 0.005\ngini = 0.32\nsamples = 50\nvalue = [40, 10]"] ;
482 -> 483 ;
484 [label="X[8] <= 0.002\ngini = 0.408\nsamples = 7\nvalue = [2, 5]"] ;
483 -> 484 ;
485 [label="gini = 0.0\nsamples = 5\nvalue = [0, 5]"] ;
484 -> 485 ;
486 [label="gini = 0.0\nsamples = 2\nvalue = [2, 0]"] ;
484 -> 486 ;
487 [label="X[2] <= 0.01\ngini = 0.206\nsamples = 43\nvalue = [38, 5]"] ;
483 -> 487 ;
488 [label="gini = 0.0\nsamples = 1\nvalue = [0, 1]"] ;
487 -> 488 ;
489 [label="X[8] <= 0.001\ngini = 0.172\nsamples = 42\nvalue = [38, 4]"] ;
487 -> 489 ;
490 [label="X[0] <= 0.006\ngini = 0.057\nsamples = 34\nvalue = [33, 1]"] ;
489 -> 490 ;
491 [label="X[7] <= 0.01\ngini = 0.444\nsamples = 3\nvalue = [2, 1]"] ;
490 -> 491 ;
492 [label="gini = 0.0\nsamples = 2\nvalue = [2, 0]"] ;
491 -> 492 ;
493 [label="gini = 0.0\nsamples = 1\nvalue = [0, 1]"] ;
491 -> 493 ;
494 [label="gini = 0.0\nsamples = 31\nvalue = [31, 0]"] ;
490 -> 494 ;
495 [label="X[6] <= 0.013\ngini = 0.469\nsamples = 8\nvalue = [5, 3]"] ;
489 -> 495 ;
496 [label="gini = 0.0\nsamples = 4\nvalue = [4, 0]"] ;
495 -> 496 ;
497 [label="X[2] <= 0.012\ngini = 0.375\nsamples = 4\nvalue = [1, 3]"] ;
495 -> 497 ;
498 [label="gini = 0.0\nsamples = 1\nvalue = [1, 0]"] ;
497 -> 498 ;
499 [label="gini = 0.0\nsamples = 3\nvalue = [0, 3]"] ;
497 -> 499 ;
500 [label="X[0] <= 0.017\ngini = 0.491\nsamples = 46\nvalue = [26, 20]"] ;
482 -> 500 ;
501 [label="X[3] <= 0.017\ngini = 0.45\nsamples = 38\nvalue = [25, 13]"] ;
500 -> 501 ;
502 [label="X[3] <= 0.003\ngini = 0.298\nsamples = 22\nvalue = [18, 4]"] ;
501 -> 502 ;
503 [label="X[4] <= 0.013\ngini = 0.469\nsamples = 8\nvalue = [5, 3]"] ;
502 -> 503 ;
504 [label="gini = 0.0\nsamples = 2\nvalue = [0, 2]"] ;
503 -> 504 ;
505 [label="X[0] <= 0.014\ngini = 0.278\nsamples = 6\nvalue = [5, 1]"] ;
503 -> 505 ;
506 [label="gini = 0.0\nsamples = 5\nvalue = [5, 0]"] ;
505 -> 506 ;
507 [label="gini = 0.0\nsamples = 1\nvalue = [0, 1]"] ;
505 -> 507 ;
508 [label="X[8] <= 0.001\ngini = 0.133\nsamples = 14\nvalue = [13, 1]"] ;
502 -> 508 ;
509 [label="gini = 0.0\nsamples = 12\nvalue = [12, 0]"] ;
508 -> 509 ;
510 [label="X[4] <= 0.015\ngini = 0.5\nsamples = 2\nvalue = [1, 1]"] ;
508 -> 510 ;
511 [label="gini = 0.0\nsamples = 1\nvalue = [0, 1]"] ;
510 -> 511 ;
512 [label="gini = 0.0\nsamples = 1\nvalue = [1, 0]"] ;
510 -> 512 ;
513 [label="X[6] <= 0.002\ngini = 0.492\nsamples = 16\nvalue = [7, 9]"] ;
501 -> 513 ;
514 [label="gini = 0.0\nsamples = 3\nvalue = [3, 0]"] ;
513 -> 514 ;
515 [label="X[9] <= 0.001\ngini = 0.426\nsamples = 13\nvalue = [4, 9]"] ;
513 -> 515 ;
516 [label="X[8] <= 0.001\ngini = 0.5\nsamples = 8\nvalue = [4, 4]"] ;
515 -> 516 ;
517 [label="X[1] <= 0.013\ngini = 0.32\nsamples = 5\nvalue = [4, 1]"] ;
516 -> 517 ;
518 [label="gini = 0.0\nsamples = 4\nvalue = [4, 0]"] ;
517 -> 518 ;
519 [label="gini = 0.0\nsamples = 1\nvalue = [0, 1]"] ;
517 -> 519 ;
520 [label="gini = 0.0\nsamples = 3\nvalue = [0, 3]"] ;
516 -> 520 ;
521 [label="gini = 0.0\nsamples = 5\nvalue = [0, 5]"] ;
515 -> 521 ;
522 [label="X[4] <= 0.019\ngini = 0.219\nsamples = 8\nvalue = [1, 7]"] ;
500 -> 522 ;
523 [label="gini = 0.0\nsamples = 7\nvalue = [0, 7]"] ;
522 -> 523 ;
524 [label="gini = 0.0\nsamples = 1\nvalue = [1, 0]"] ;
522 -> 524 ;
525 [label="X[0] <= 0.015\ngini = 0.245\nsamples = 7\nvalue = [1, 6]"] ;
481 -> 525 ;
526 [label="gini = 0.0\nsamples = 5\nvalue = [0, 5]"] ;
525 -> 526 ;
527 [label="X[9] <= 0.001\ngini = 0.5\nsamples = 2\nvalue = [1, 1]"] ;
525 -> 527 ;
528 [label="gini = 0.0\nsamples = 1\nvalue = [0, 1]"] ;
527 -> 528 ;
529 [label="gini = 0.0\nsamples = 1\nvalue = [1, 0]"] ;
527 -> 529 ;
530 [label="X[8] <= 0.007\ngini = 0.279\nsamples = 245\nvalue = [204, 41]"] ;
480 -> 530 ;
531 [label="X[5] <= 0.01\ngini = 0.175\nsamples = 134\nvalue = [121, 13]"] ;
530 -> 531 ;
532 [label="X[2] <= 0.014\ngini = 0.316\nsamples = 56\nvalue = [45, 11]"] ;
531 -> 532 ;
533 [label="X[9] <= 0.001\ngini = 0.188\nsamples = 38\nvalue = [34, 4]"] ;
532 -> 533 ;
534 [label="X[0] <= 0.017\ngini = 0.444\nsamples = 12\nvalue = [8, 4]"] ;
533 -> 534 ;
535 [label="X[2] <= 0.012\ngini = 0.444\nsamples = 6\nvalue = [2, 4]"] ;
534 -> 535 ;
536 [label="gini = 0.0\nsamples = 3\nvalue = [0, 3]"] ;
535 -> 536 ;
537 [label="X[5] <= 0.007\ngini = 0.444\nsamples = 3\nvalue = [2, 1]"] ;
535 -> 537 ;
538 [label="gini = 0.0\nsamples = 2\nvalue = [2, 0]"] ;
537 -> 538 ;
539 [label="gini = 0.0\nsamples = 1\nvalue = [0, 1]"] ;
537 -> 539 ;
540 [label="gini = 0.0\nsamples = 6\nvalue = [6, 0]"] ;
534 -> 540 ;
541 [label="gini = 0.0\nsamples = 26\nvalue = [26, 0]"] ;
533 -> 541 ;
542 [label="X[5] <= 0.008\ngini = 0.475\nsamples = 18\nvalue = [11, 7]"] ;
532 -> 542 ;
543 [label="X[4] <= 0.004\ngini = 0.391\nsamples = 15\nvalue = [11, 4]"] ;
542 -> 543 ;
544 [label="gini = 0.0\nsamples = 7\nvalue = [7, 0]"] ;
543 -> 544 ;
545 [label="X[4] <= 0.013\ngini = 0.5\nsamples = 8\nvalue = [4, 4]"] ;
543 -> 545 ;
546 [label="gini = 0.0\nsamples = 4\nvalue = [0, 4]"] ;
545 -> 546 ;
547 [label="gini = 0.0\nsamples = 4\nvalue = [4, 0]"] ;
545 -> 547 ;
548 [label="gini = 0.0\nsamples = 3\nvalue = [0, 3]"] ;
542 -> 548 ;
549 [label="X[8] <= 0.005\ngini = 0.05\nsamples = 78\nvalue = [76, 2]"] ;
531 -> 549 ;
550 [label="gini = 0.0\nsamples = 59\nvalue = [59, 0]"] ;
549 -> 550 ;
551 [label="X[8] <= 0.005\ngini = 0.188\nsamples = 19\nvalue = [17, 2]"] ;
549 -> 551 ;
552 [label="gini = 0.0\nsamples = 1\nvalue = [0, 1]"] ;
551 -> 552 ;
553 [label="X[4] <= 0.001\ngini = 0.105\nsamples = 18\nvalue = [17, 1]"] ;
551 -> 553 ;
554 [label="X[8] <= 0.006\ngini = 0.5\nsamples = 2\nvalue = [1, 1]"] ;
553 -> 554 ;
555 [label="gini = 0.0\nsamples = 1\nvalue = [0, 1]"] ;
554 -> 555 ;
556 [label="gini = 0.0\nsamples = 1\nvalue = [1, 0]"] ;
554 -> 556 ;
557 [label="gini = 0.0\nsamples = 16\nvalue = [16, 0]"] ;
553 -> 557 ;
558 [label="X[0] <= 0.001\ngini = 0.377\nsamples = 111\nvalue = [83, 28]"] ;
530 -> 558 ;
559 [label="gini = 0.0\nsamples = 2\nvalue = [0, 2]"] ;
558 -> 559 ;
560 [label="X[5] <= 0.001\ngini = 0.363\nsamples = 109\nvalue = [83, 26]"] ;
558 -> 560 ;
561 [label="X[3] <= 0.021\ngini = 0.375\nsamples = 4\nvalue = [1, 3]"] ;
560 -> 561 ;
562 [label="gini = 0.0\nsamples = 3\nvalue = [0, 3]"] ;
561 -> 562 ;
563 [label="gini = 0.0\nsamples = 1\nvalue = [1, 0]"] ;
561 -> 563 ;
564 [label="X[9] <= 0.002\ngini = 0.342\nsamples = 105\nvalue = [82, 23]"] ;
560 -> 564 ;
565 [label="X[9] <= 0.001\ngini = 0.318\nsamples = 101\nvalue = [81, 20]"] ;
564 -> 565 ;
566 [label="X[5] <= 0.007\ngini = 0.413\nsamples = 55\nvalue = [39, 16]"] ;
565 -> 566 ;
567 [label="X[2] <= 0.014\ngini = 0.32\nsamples = 5\nvalue = [1, 4]"] ;
566 -> 567 ;
568 [label="gini = 0.0\nsamples = 4\nvalue = [0, 4]"] ;
567 -> 568 ;
569 [label="gini = 0.0\nsamples = 1\nvalue = [1, 0]"] ;
567 -> 569 ;
570 [label="X[1] <= 0.007\ngini = 0.365\nsamples = 50\nvalue = [38, 12]"] ;
566 -> 570 ;
571 [label="X[9] <= 0.001\ngini = 0.494\nsamples = 9\nvalue = [4, 5]"] ;
570 -> 571 ;
572 [label="gini = 0.0\nsamples = 2\nvalue = [2, 0]"] ;
571 -> 572 ;
573 [label="X[2] <= 0.015\ngini = 0.408\nsamples = 7\nvalue = [2, 5]"] ;
571 -> 573 ;
574 [label="gini = 0.0\nsamples = 5\nvalue = [0, 5]"] ;
573 -> 574 ;
575 [label="gini = 0.0\nsamples = 2\nvalue = [2, 0]"] ;
573 -> 575 ;
576 [label="X[5] <= 0.019\ngini = 0.283\nsamples = 41\nvalue = [34, 7]"] ;
570 -> 576 ;
577 [label="X[8] <= 0.007\ngini = 0.255\nsamples = 40\nvalue = [34, 6]"] ;
576 -> 577 ;
578 [label="gini = 0.0\nsamples = 1\nvalue = [0, 1]"] ;
577 -> 578 ;
579 [label="X[8] <= 0.013\ngini = 0.224\nsamples = 39\nvalue = [34, 5]"] ;
577 -> 579 ;
580 [label="X[5] <= 0.017\ngini = 0.117\nsamples = 32\nvalue = [30, 2]"] ;
579 -> 580 ;
581 [label="gini = 0.0\nsamples = 25\nvalue = [25, 0]"] ;
580 -> 581 ;
582 [label="X[2] <= 0.013\ngini = 0.408\nsamples = 7\nvalue = [5, 2]"] ;
580 -> 582 ;
583 [label="gini = 0.0\nsamples = 4\nvalue = [4, 0]"] ;
582 -> 583 ;
584 [label="X[2] <= 0.014\ngini = 0.444\nsamples = 3\nvalue = [1, 2]"] ;
582 -> 584 ;
585 [label="gini = 0.0\nsamples = 2\nvalue = [0, 2]"] ;
584 -> 585 ;
586 [label="gini = 0.0\nsamples = 1\nvalue = [1, 0]"] ;
584 -> 586 ;
587 [label="X[4] <= 0.005\ngini = 0.49\nsamples = 7\nvalue = [4, 3]"] ;
579 -> 587 ;
588 [label="gini = 0.0\nsamples = 2\nvalue = [0, 2]"] ;
587 -> 588 ;
589 [label="X[9] <= 0.001\ngini = 0.32\nsamples = 5\nvalue = [4, 1]"] ;
587 -> 589 ;
590 [label="gini = 0.0\nsamples = 4\nvalue = [4, 0]"] ;
589 -> 590 ;
591 [label="gini = 0.0\nsamples = 1\nvalue = [0, 1]"] ;
589 -> 591 ;
592 [label="gini = 0.0\nsamples = 1\nvalue = [0, 1]"] ;
576 -> 592 ;
593 [label="X[2] <= 0.015\ngini = 0.159\nsamples = 46\nvalue = [42, 4]"] ;
565 -> 593 ;
594 [label="X[5] <= 0.014\ngini = 0.124\nsamples = 45\nvalue = [42, 3]"] ;
593 -> 594 ;
595 [label="X[4] <= 0.003\ngini = 0.089\nsamples = 43\nvalue = [41, 2]"] ;
594 -> 595 ;
596 [label="X[1] <= 0.01\ngini = 0.375\nsamples = 8\nvalue = [6, 2]"] ;
595 -> 596 ;
597 [label="gini = 0.0\nsamples = 6\nvalue = [6, 0]"] ;
596 -> 597 ;
598 [label="gini = 0.0\nsamples = 2\nvalue = [0, 2]"] ;
596 -> 598 ;
599 [label="gini = 0.0\nsamples = 35\nvalue = [35, 0]"] ;
595 -> 599 ;
600 [label="X[9] <= 0.001\ngini = 0.5\nsamples = 2\nvalue = [1, 1]"] ;
594 -> 600 ;
601 [label="gini = 0.0\nsamples = 1\nvalue = [1, 0]"] ;
600 -> 601 ;
602 [label="gini = 0.0\nsamples = 1\nvalue = [0, 1]"] ;
600 -> 602 ;
603 [label="gini = 0.0\nsamples = 1\nvalue = [0, 1]"] ;
593 -> 603 ;
604 [label="X[4] <= 0.014\ngini = 0.375\nsamples = 4\nvalue = [1, 3]"] ;
564 -> 604 ;
605 [label="gini = 0.0\nsamples = 3\nvalue = [0, 3]"] ;
604 -> 605 ;
606 [label="gini = 0.0\nsamples = 1\nvalue = [1, 0]"] ;
604 -> 606 ;
607 [label="X[4] <= 0.004\ngini = 0.397\nsamples = 11\nvalue = [3, 8]"] ;
479 -> 607 ;
608 [label="X[1] <= 0.008\ngini = 0.444\nsamples = 3\nvalue = [2, 1]"] ;
607 -> 608 ;
609 [label="gini = 0.0\nsamples = 1\nvalue = [0, 1]"] ;
608 -> 609 ;
610 [label="gini = 0.0\nsamples = 2\nvalue = [2, 0]"] ;
608 -> 610 ;
611 [label="X[3] <= 0.015\ngini = 0.219\nsamples = 8\nvalue = [1, 7]"] ;
607 -> 611 ;
612 [label="gini = 0.0\nsamples = 7\nvalue = [0, 7]"] ;
611 -> 612 ;
613 [label="gini = 0.0\nsamples = 1\nvalue = [1, 0]"] ;
611 -> 613 ;
614 [label="X[5] <= 0.013\ngini = 0.176\nsamples = 645\nvalue = [582, 63]"] ;
478 -> 614 ;
615 [label="X[0] <= 0.001\ngini = 0.157\nsamples = 619\nvalue = [566, 53]"] ;
614 -> 615 ;
616 [label="X[6] <= 0.007\ngini = 0.476\nsamples = 23\nvalue = [14, 9]"] ;
615 -> 616 ;
617 [label="X[4] <= 0.0\ngini = 0.231\nsamples = 15\nvalue = [13, 2]"] ;
616 -> 617 ;
618 [label="gini = 0.0\nsamples = 2\nvalue = [0, 2]"] ;
617 -> 618 ;
619 [label="gini = 0.0\nsamples = 13\nvalue = [13, 0]"] ;
617 -> 619 ;
620 [label="X[8] <= 0.004\ngini = 0.219\nsamples = 8\nvalue = [1, 7]"] ;
616 -> 620 ;
621 [label="gini = 0.0\nsamples = 1\nvalue = [1, 0]"] ;
620 -> 621 ;
622 [label="gini = 0.0\nsamples = 7\nvalue = [0, 7]"] ;
620 -> 622 ;
623 [label="X[2] <= 0.01\ngini = 0.137\nsamples = 596\nvalue = [552, 44]"] ;
615 -> 623 ;
624 [label="X[6] <= 0.004\ngini = 0.444\nsamples = 3\nvalue = [1, 2]"] ;
623 -> 624 ;
625 [label="gini = 0.0\nsamples = 2\nvalue = [0, 2]"] ;
624 -> 625 ;
626 [label="gini = 0.0\nsamples = 1\nvalue = [1, 0]"] ;
624 -> 626 ;
627 [label="X[2] <= 0.014\ngini = 0.132\nsamples = 593\nvalue = [551, 42]"] ;
623 -> 627 ;
628 [label="X[5] <= 0.012\ngini = 0.099\nsamples = 460\nvalue = [436, 24]"] ;
627 -> 628 ;
629 [label="X[5] <= 0.0\ngini = 0.086\nsamples = 443\nvalue = [423, 20]"] ;
628 -> 629 ;
630 [label="X[4] <= 0.002\ngini = 0.5\nsamples = 2\nvalue = [1, 1]"] ;
629 -> 630 ;
631 [label="gini = 0.0\nsamples = 1\nvalue = [0, 1]"] ;
630 -> 631 ;
632 [label="gini = 0.0\nsamples = 1\nvalue = [1, 0]"] ;
630 -> 632 ;
633 [label="X[6] <= 0.0\ngini = 0.082\nsamples = 441\nvalue = [422, 19]"] ;
629 -> 633 ;
634 [label="X[6] <= 0.0\ngini = 0.5\nsamples = 2\nvalue = [1, 1]"] ;
633 -> 634 ;
635 [label="gini = 0.0\nsamples = 1\nvalue = [1, 0]"] ;
634 -> 635 ;
636 [label="gini = 0.0\nsamples = 1\nvalue = [0, 1]"] ;
634 -> 636 ;
637 [label="X[0] <= 0.001\ngini = 0.079\nsamples = 439\nvalue = [421, 18]"] ;
633 -> 637 ;
638 [label="X[0] <= 0.001\ngini = 0.337\nsamples = 14\nvalue = [11, 3]"] ;
637 -> 638 ;
639 [label="gini = 0.0\nsamples = 10\nvalue = [10, 0]"] ;
638 -> 639 ;
640 [label="X[3] <= 0.007\ngini = 0.375\nsamples = 4\nvalue = [1, 3]"] ;
638 -> 640 ;
641 [label="gini = 0.0\nsamples = 3\nvalue = [0, 3]"] ;
640 -> 641 ;
642 [label="gini = 0.0\nsamples = 1\nvalue = [1, 0]"] ;
640 -> 642 ;
643 [label="X[1] <= 0.013\ngini = 0.068\nsamples = 425\nvalue = [410, 15]"] ;
637 -> 643 ;
644 [label="X[8] <= 0.041\ngini = 0.05\nsamples = 353\nvalue = [344, 9]"] ;
643 -> 644 ;
645 [label="X[1] <= 0.006\ngini = 0.045\nsamples = 349\nvalue = [341, 8]"] ;
644 -> 645 ;
646 [label="X[8] <= 0.001\ngini = 0.32\nsamples = 5\nvalue = [4, 1]"] ;
645 -> 646 ;
647 [label="gini = 0.0\nsamples = 1\nvalue = [0, 1]"] ;
646 -> 647 ;
648 [label="gini = 0.0\nsamples = 4\nvalue = [4, 0]"] ;
646 -> 648 ;
649 [label="X[9] <= 0.01\ngini = 0.04\nsamples = 344\nvalue = [337, 7]"] ;
645 -> 649 ;
650 [label="X[1] <= 0.01\ngini = 0.035\nsamples = 337\nvalue = [331, 6]"] ;
649 -> 650 ;
651 [label="X[6] <= 0.003\ngini = 0.009\nsamples = 219\nvalue = [218, 1]"] ;
650 -> 651 ;
652 [label="X[6] <= 0.003\ngini = 0.045\nsamples = 43\nvalue = [42, 1]"] ;
651 -> 652 ;
653 [label="gini = 0.0\nsamples = 42\nvalue = [42, 0]"] ;
652 -> 653 ;
654 [label="gini = 0.0\nsamples = 1\nvalue = [0, 1]"] ;
652 -> 654 ;
655 [label="gini = 0.0\nsamples = 176\nvalue = [176, 0]"] ;
651 -> 655 ;
656 [label="X[1] <= 0.01\ngini = 0.081\nsamples = 118\nvalue = [113, 5]"] ;
650 -> 656 ;
657 [label="gini = 0.0\nsamples = 1\nvalue = [0, 1]"] ;
656 -> 657 ;
658 [label="X[2] <= 0.014\ngini = 0.066\nsamples = 117\nvalue = [113, 4]"] ;
656 -> 658 ;
659 [label="X[2] <= 0.012\ngini = 0.052\nsamples = 112\nvalue = [109, 3]"] ;
658 -> 659 ;
660 [label="X[1] <= 0.011\ngini = 0.172\nsamples = 21\nvalue = [19, 2]"] ;
659 -> 660 ;
661 [label="X[7] <= 0.007\ngini = 0.408\nsamples = 7\nvalue = [5, 2]"] ;
660 -> 661 ;
662 [label="gini = 0.0\nsamples = 1\nvalue = [0, 1]"] ;
661 -> 662 ;
663 [label="X[9] <= 0.006\ngini = 0.278\nsamples = 6\nvalue = [5, 1]"] ;
661 -> 663 ;
664 [label="gini = 0.0\nsamples = 5\nvalue = [5, 0]"] ;
663 -> 664 ;
665 [label="gini = 0.0\nsamples = 1\nvalue = [0, 1]"] ;
663 -> 665 ;
666 [label="gini = 0.0\nsamples = 14\nvalue = [14, 0]"] ;
660 -> 666 ;
667 [label="X[4] <= 0.001\ngini = 0.022\nsamples = 91\nvalue = [90, 1]"] ;
659 -> 667 ;
668 [label="X[4] <= 0.001\ngini = 0.153\nsamples = 12\nvalue = [11, 1]"] ;
667 -> 668 ;
669 [label="gini = 0.0\nsamples = 10\nvalue = [10, 0]"] ;
668 -> 669 ;
670 [label="X[9] <= 0.003\ngini = 0.5\nsamples = 2\nvalue = [1, 1]"] ;
668 -> 670 ;
671 [label="gini = 0.0\nsamples = 1\nvalue = [1, 0]"] ;
670 -> 671 ;
672 [label="gini = 0.0\nsamples = 1\nvalue = [0, 1]"] ;
670 -> 672 ;
673 [label="gini = 0.0\nsamples = 79\nvalue = [79, 0]"] ;
667 -> 673 ;
674 [label="X[5] <= 0.009\ngini = 0.32\nsamples = 5\nvalue = [4, 1]"] ;
658 -> 674 ;
675 [label="gini = 0.0\nsamples = 4\nvalue = [4, 0]"] ;
674 -> 675 ;
676 [label="gini = 0.0\nsamples = 1\nvalue = [0, 1]"] ;
674 -> 676 ;
677 [label="X[5] <= 0.001\ngini = 0.245\nsamples = 7\nvalue = [6, 1]"] ;
649 -> 677 ;
678 [label="gini = 0.0\nsamples = 6\nvalue = [6, 0]"] ;
677 -> 678 ;
679 [label="gini = 0.0\nsamples = 1\nvalue = [0, 1]"] ;
677 -> 679 ;
680 [label="X[5] <= 0.005\ngini = 0.375\nsamples = 4\nvalue = [3, 1]"] ;
644 -> 680 ;
681 [label="gini = 0.0\nsamples = 3\nvalue = [3, 0]"] ;
680 -> 681 ;
682 [label="gini = 0.0\nsamples = 1\nvalue = [0, 1]"] ;
680 -> 682 ;
683 [label="X[7] <= 0.026\ngini = 0.153\nsamples = 72\nvalue = [66, 6]"] ;
643 -> 683 ;
684 [label="X[2] <= 0.013\ngini = 0.111\nsamples = 68\nvalue = [64, 4]"] ;
683 -> 684 ;
685 [label="X[9] <= 0.007\ngini = 0.043\nsamples = 46\nvalue = [45, 1]"] ;
684 -> 685 ;
686 [label="gini = 0.0\nsamples = 41\nvalue = [41, 0]"] ;
685 -> 686 ;
687 [label="X[1] <= 0.015\ngini = 0.32\nsamples = 5\nvalue = [4, 1]"] ;
685 -> 687 ;
688 [label="gini = 0.0\nsamples = 1\nvalue = [0, 1]"] ;
687 -> 688 ;
689 [label="gini = 0.0\nsamples = 4\nvalue = [4, 0]"] ;
687 -> 689 ;
690 [label="X[9] <= 0.002\ngini = 0.236\nsamples = 22\nvalue = [19, 3]"] ;
684 -> 690 ;
691 [label="gini = 0.0\nsamples = 1\nvalue = [0, 1]"] ;
690 -> 691 ;
692 [label="X[4] <= 0.005\ngini = 0.172\nsamples = 21\nvalue = [19, 2]"] ;
690 -> 692 ;
693 [label="gini = 0.0\nsamples = 16\nvalue = [16, 0]"] ;
692 -> 693 ;
694 [label="X[9] <= 0.003\ngini = 0.48\nsamples = 5\nvalue = [3, 2]"] ;
692 -> 694 ;
695 [label="gini = 0.0\nsamples = 2\nvalue = [2, 0]"] ;
694 -> 695 ;
696 [label="X[3] <= 0.021\ngini = 0.444\nsamples = 3\nvalue = [1, 2]"] ;
694 -> 696 ;
697 [label="gini = 0.0\nsamples = 2\nvalue = [0, 2]"] ;
696 -> 697 ;
698 [label="gini = 0.0\nsamples = 1\nvalue = [1, 0]"] ;
696 -> 698 ;
699 [label="X[8] <= 0.016\ngini = 0.5\nsamples = 4\nvalue = [2, 2]"] ;
683 -> 699 ;
700 [label="gini = 0.0\nsamples = 2\nvalue = [0, 2]"] ;
699 -> 700 ;
701 [label="gini = 0.0\nsamples = 2\nvalue = [2, 0]"] ;
699 -> 701 ;
702 [label="X[6] <= 0.012\ngini = 0.36\nsamples = 17\nvalue = [13, 4]"] ;
628 -> 702 ;
703 [label="gini = 0.0\nsamples = 2\nvalue = [0, 2]"] ;
702 -> 703 ;
704 [label="X[8] <= 0.007\ngini = 0.231\nsamples = 15\nvalue = [13, 2]"] ;
702 -> 704 ;
705 [label="gini = 0.0\nsamples = 11\nvalue = [11, 0]"] ;
704 -> 705 ;
706 [label="X[9] <= 0.002\ngini = 0.5\nsamples = 4\nvalue = [2, 2]"] ;
704 -> 706 ;
707 [label="gini = 0.0\nsamples = 2\nvalue = [2, 0]"] ;
706 -> 707 ;
708 [label="gini = 0.0\nsamples = 2\nvalue = [0, 2]"] ;
706 -> 708 ;
709 [label="X[8] <= 0.022\ngini = 0.234\nsamples = 133\nvalue = [115, 18]"] ;
627 -> 709 ;
710 [label="X[9] <= 0.002\ngini = 0.18\nsamples = 120\nvalue = [108, 12]"] ;
709 -> 710 ;
711 [label="X[8] <= 0.007\ngini = 0.384\nsamples = 27\nvalue = [20, 7]"] ;
710 -> 711 ;
712 [label="X[6] <= 0.005\ngini = 0.111\nsamples = 17\nvalue = [16, 1]"] ;
711 -> 712 ;
713 [label="X[0] <= 0.007\ngini = 0.5\nsamples = 2\nvalue = [1, 1]"] ;
712 -> 713 ;
714 [label="gini = 0.0\nsamples = 1\nvalue = [1, 0]"] ;
713 -> 714 ;
715 [label="gini = 0.0\nsamples = 1\nvalue = [0, 1]"] ;
713 -> 715 ;
716 [label="gini = 0.0\nsamples = 15\nvalue = [15, 0]"] ;
712 -> 716 ;
717 [label="X[1] <= 0.013\ngini = 0.48\nsamples = 10\nvalue = [4, 6]"] ;
711 -> 717 ;
718 [label="X[1] <= 0.008\ngini = 0.375\nsamples = 8\nvalue = [2, 6]"] ;
717 -> 718 ;
719 [label="X[6] <= 0.01\ngini = 0.444\nsamples = 3\nvalue = [2, 1]"] ;
718 -> 719 ;
720 [label="gini = 0.0\nsamples = 1\nvalue = [0, 1]"] ;
719 -> 720 ;
721 [label="gini = 0.0\nsamples = 2\nvalue = [2, 0]"] ;
719 -> 721 ;
722 [label="gini = 0.0\nsamples = 5\nvalue = [0, 5]"] ;
718 -> 722 ;
723 [label="gini = 0.0\nsamples = 2\nvalue = [2, 0]"] ;
717 -> 723 ;
724 [label="X[5] <= 0.007\ngini = 0.102\nsamples = 93\nvalue = [88, 5]"] ;
710 -> 724 ;
725 [label="X[4] <= 0.005\ngini = 0.027\nsamples = 73\nvalue = [72, 1]"] ;
724 -> 725 ;
726 [label="gini = 0.0\nsamples = 59\nvalue = [59, 0]"] ;
725 -> 726 ;
727 [label="X[4] <= 0.005\ngini = 0.133\nsamples = 14\nvalue = [13, 1]"] ;
725 -> 727 ;
728 [label="gini = 0.0\nsamples = 1\nvalue = [0, 1]"] ;
727 -> 728 ;
729 [label="gini = 0.0\nsamples = 13\nvalue = [13, 0]"] ;
727 -> 729 ;
730 [label="X[3] <= 0.006\ngini = 0.32\nsamples = 20\nvalue = [16, 4]"] ;
724 -> 730 ;
731 [label="X[5] <= 0.009\ngini = 0.444\nsamples = 6\nvalue = [2, 4]"] ;
730 -> 731 ;
732 [label="gini = 0.0\nsamples = 4\nvalue = [0, 4]"] ;
731 -> 732 ;
733 [label="gini = 0.0\nsamples = 2\nvalue = [2, 0]"] ;
731 -> 733 ;
734 [label="gini = 0.0\nsamples = 14\nvalue = [14, 0]"] ;
730 -> 734 ;
735 [label="X[9] <= 0.005\ngini = 0.497\nsamples = 13\nvalue = [7, 6]"] ;
709 -> 735 ;
736 [label="gini = 0.0\nsamples = 4\nvalue = [0, 4]"] ;
735 -> 736 ;
737 [label="X[4] <= 0.001\ngini = 0.346\nsamples = 9\nvalue = [7, 2]"] ;
735 -> 737 ;
738 [label="X[9] <= 0.005\ngini = 0.444\nsamples = 3\nvalue = [1, 2]"] ;
737 -> 738 ;
739 [label="gini = 0.0\nsamples = 1\nvalue = [1, 0]"] ;
738 -> 739 ;
740 [label="gini = 0.0\nsamples = 2\nvalue = [0, 2]"] ;
738 -> 740 ;
741 [label="gini = 0.0\nsamples = 6\nvalue = [6, 0]"] ;
737 -> 741 ;
742 [label="X[8] <= 0.002\ngini = 0.473\nsamples = 26\nvalue = [16, 10]"] ;
614 -> 742 ;
743 [label="X[8] <= 0.0\ngini = 0.219\nsamples = 16\nvalue = [14, 2]"] ;
742 -> 743 ;
744 [label="gini = 0.0\nsamples = 1\nvalue = [0, 1]"] ;
743 -> 744 ;
745 [label="X[4] <= 0.017\ngini = 0.124\nsamples = 15\nvalue = [14, 1]"] ;
743 -> 745 ;
746 [label="gini = 0.0\nsamples = 10\nvalue = [10, 0]"] ;
745 -> 746 ;
747 [label="X[6] <= 0.015\ngini = 0.32\nsamples = 5\nvalue = [4, 1]"] ;
745 -> 747 ;
748 [label="gini = 0.0\nsamples = 1\nvalue = [0, 1]"] ;
747 -> 748 ;
749 [label="gini = 0.0\nsamples = 4\nvalue = [4, 0]"] ;
747 -> 749 ;
750 [label="X[4] <= 0.019\ngini = 0.32\nsamples = 10\nvalue = [2, 8]"] ;
742 -> 750 ;
751 [label="gini = 0.0\nsamples = 7\nvalue = [0, 7]"] ;
750 -> 751 ;
752 [label="X[0] <= 0.018\ngini = 0.444\nsamples = 3\nvalue = [2, 1]"] ;
750 -> 752 ;
753 [label="gini = 0.0\nsamples = 2\nvalue = [2, 0]"] ;
752 -> 753 ;
754 [label="gini = 0.0\nsamples = 1\nvalue = [0, 1]"] ;
752 -> 754 ;
755 [label="X[2] <= 0.014\ngini = 0.482\nsamples = 47\nvalue = [28, 19]"] ;
383 -> 755 ;
756 [label="X[1] <= 0.006\ngini = 0.366\nsamples = 29\nvalue = [22, 7]"] ;
755 -> 756 ;
757 [label="X[4] <= 0.02\ngini = 0.142\nsamples = 13\nvalue = [12, 1]"] ;
756 -> 757 ;
758 [label="gini = 0.0\nsamples = 12\nvalue = [12, 0]"] ;
757 -> 758 ;
759 [label="gini = 0.0\nsamples = 1\nvalue = [0, 1]"] ;
757 -> 759 ;
760 [label="X[6] <= 0.014\ngini = 0.469\nsamples = 16\nvalue = [10, 6]"] ;
756 -> 760 ;
761 [label="X[1] <= 0.009\ngini = 0.496\nsamples = 11\nvalue = [5, 6]"] ;
760 -> 761 ;
762 [label="gini = 0.0\nsamples = 4\nvalue = [0, 4]"] ;
761 -> 762 ;
763 [label="X[1] <= 0.013\ngini = 0.408\nsamples = 7\nvalue = [5, 2]"] ;
761 -> 763 ;
764 [label="gini = 0.0\nsamples = 4\nvalue = [4, 0]"] ;
763 -> 764 ;
765 [label="X[4] <= 0.006\ngini = 0.444\nsamples = 3\nvalue = [1, 2]"] ;
763 -> 765 ;
766 [label="gini = 0.0\nsamples = 1\nvalue = [1, 0]"] ;
765 -> 766 ;
767 [label="gini = 0.0\nsamples = 2\nvalue = [0, 2]"] ;
765 -> 767 ;
768 [label="gini = 0.0\nsamples = 5\nvalue = [5, 0]"] ;
760 -> 768 ;
769 [label="X[4] <= 0.014\ngini = 0.444\nsamples = 18\nvalue = [6, 12]"] ;
755 -> 769 ;
770 [label="X[9] <= 0.002\ngini = 0.32\nsamples = 15\nvalue = [3, 12]"] ;
769 -> 770 ;
771 [label="gini = 0.0\nsamples = 10\nvalue = [0, 10]"] ;
770 -> 771 ;
772 [label="X[5] <= 0.004\ngini = 0.48\nsamples = 5\nvalue = [3, 2]"] ;
770 -> 772 ;
773 [label="gini = 0.0\nsamples = 2\nvalue = [2, 0]"] ;
772 -> 773 ;
774 [label="X[4] <= 0.008\ngini = 0.444\nsamples = 3\nvalue = [1, 2]"] ;
772 -> 774 ;
775 [label="gini = 0.0\nsamples = 2\nvalue = [0, 2]"] ;
774 -> 775 ;
776 [label="gini = 0.0\nsamples = 1\nvalue = [1, 0]"] ;
774 -> 776 ;
777 [label="gini = 0.0\nsamples = 3\nvalue = [3, 0]"] ;
769 -> 777 ;
778 [label="X[2] <= 0.014\ngini = 0.47\nsamples = 159\nvalue = [99, 60]"] ;
382 -> 778 ;
779 [label="X[0] <= 0.025\ngini = 0.444\nsamples = 144\nvalue = [96, 48]"] ;
778 -> 779 ;
780 [label="X[4] <= 0.026\ngini = 0.49\nsamples = 86\nvalue = [49, 37]"] ;
779 -> 780 ;
781 [label="X[3] <= 0.02\ngini = 0.448\nsamples = 65\nvalue = [43, 22]"] ;
780 -> 781 ;
782 [label="X[0] <= 0.002\ngini = 0.397\nsamples = 55\nvalue = [40, 15]"] ;
781 -> 782 ;
783 [label="gini = 0.0\nsamples = 2\nvalue = [0, 2]"] ;
782 -> 783 ;
784 [label="X[6] <= 0.018\ngini = 0.37\nsamples = 53\nvalue = [40, 13]"] ;
782 -> 784 ;
785 [label="gini = 0.0\nsamples = 10\nvalue = [10, 0]"] ;
784 -> 785 ;
786 [label="X[4] <= 0.004\ngini = 0.422\nsamples = 43\nvalue = [30, 13]"] ;
784 -> 786 ;
787 [label="X[1] <= 0.003\ngini = 0.444\nsamples = 6\nvalue = [2, 4]"] ;
786 -> 787 ;
788 [label="X[0] <= 0.021\ngini = 0.444\nsamples = 3\nvalue = [2, 1]"] ;
787 -> 788 ;
789 [label="gini = 0.0\nsamples = 1\nvalue = [0, 1]"] ;
788 -> 789 ;
790 [label="gini = 0.0\nsamples = 2\nvalue = [2, 0]"] ;
788 -> 790 ;
791 [label="gini = 0.0\nsamples = 3\nvalue = [0, 3]"] ;
787 -> 791 ;
792 [label="X[8] <= 0.0\ngini = 0.368\nsamples = 37\nvalue = [28, 9]"] ;
786 -> 792 ;
793 [label="gini = 0.0\nsamples = 12\nvalue = [12, 0]"] ;
792 -> 793 ;
794 [label="X[6] <= 0.019\ngini = 0.461\nsamples = 25\nvalue = [16, 9]"] ;
792 -> 794 ;
795 [label="gini = 0.0\nsamples = 4\nvalue = [0, 4]"] ;
794 -> 795 ;
796 [label="X[2] <= 0.013\ngini = 0.363\nsamples = 21\nvalue = [16, 5]"] ;
794 -> 796 ;
797 [label="X[5] <= 0.025\ngini = 0.124\nsamples = 15\nvalue = [14, 1]"] ;
796 -> 797 ;
798 [label="gini = 0.0\nsamples = 14\nvalue = [14, 0]"] ;
797 -> 798 ;
799 [label="gini = 0.0\nsamples = 1\nvalue = [0, 1]"] ;
797 -> 799 ;
800 [label="X[4] <= 0.024\ngini = 0.444\nsamples = 6\nvalue = [2, 4]"] ;
796 -> 800 ;
801 [label="gini = 0.0\nsamples = 4\nvalue = [0, 4]"] ;
800 -> 801 ;
802 [label="gini = 0.0\nsamples = 2\nvalue = [2, 0]"] ;
800 -> 802 ;
803 [label="X[4] <= 0.024\ngini = 0.42\nsamples = 10\nvalue = [3, 7]"] ;
781 -> 803 ;
804 [label="gini = 0.0\nsamples = 7\nvalue = [0, 7]"] ;
803 -> 804 ;
805 [label="gini = 0.0\nsamples = 3\nvalue = [3, 0]"] ;
803 -> 805 ;
806 [label="X[6] <= 0.027\ngini = 0.408\nsamples = 21\nvalue = [6, 15]"] ;
780 -> 806 ;
807 [label="X[3] <= 0.011\ngini = 0.332\nsamples = 19\nvalue = [4, 15]"] ;
806 -> 807 ;
808 [label="gini = 0.0\nsamples = 7\nvalue = [0, 7]"] ;
807 -> 808 ;
809 [label="X[2] <= 0.011\ngini = 0.444\nsamples = 12\nvalue = [4, 8]"] ;
807 -> 809 ;
810 [label="gini = 0.0\nsamples = 2\nvalue = [2, 0]"] ;
809 -> 810 ;
811 [label="X[2] <= 0.013\ngini = 0.32\nsamples = 10\nvalue = [2, 8]"] ;
809 -> 811 ;
812 [label="gini = 0.0\nsamples = 7\nvalue = [0, 7]"] ;
811 -> 812 ;
813 [label="X[2] <= 0.013\ngini = 0.444\nsamples = 3\nvalue = [2, 1]"] ;
811 -> 813 ;
814 [label="gini = 0.0\nsamples = 2\nvalue = [2, 0]"] ;
813 -> 814 ;
815 [label="gini = 0.0\nsamples = 1\nvalue = [0, 1]"] ;
813 -> 815 ;
816 [label="gini = 0.0\nsamples = 2\nvalue = [2, 0]"] ;
806 -> 816 ;
817 [label="X[3] <= 0.008\ngini = 0.307\nsamples = 58\nvalue = [47, 11]"] ;
779 -> 817 ;
818 [label="X[3] <= 0.007\ngini = 0.49\nsamples = 14\nvalue = [8, 6]"] ;
817 -> 818 ;
819 [label="X[4] <= 0.033\ngini = 0.198\nsamples = 9\nvalue = [8, 1]"] ;
818 -> 819 ;
820 [label="gini = 0.0\nsamples = 8\nvalue = [8, 0]"] ;
819 -> 820 ;
821 [label="gini = 0.0\nsamples = 1\nvalue = [0, 1]"] ;
819 -> 821 ;
822 [label="gini = 0.0\nsamples = 5\nvalue = [0, 5]"] ;
818 -> 822 ;
823 [label="X[5] <= 0.029\ngini = 0.201\nsamples = 44\nvalue = [39, 5]"] ;
817 -> 823 ;
824 [label="X[1] <= 0.011\ngini = 0.169\nsamples = 43\nvalue = [39, 4]"] ;
823 -> 824 ;
825 [label="X[3] <= 0.014\ngini = 0.136\nsamples = 41\nvalue = [38, 3]"] ;
824 -> 825 ;
826 [label="X[5] <= 0.028\ngini = 0.291\nsamples = 17\nvalue = [14, 3]"] ;
825 -> 826 ;
827 [label="X[6] <= 0.025\ngini = 0.444\nsamples = 9\nvalue = [6, 3]"] ;
826 -> 827 ;
828 [label="X[1] <= 0.009\ngini = 0.245\nsamples = 7\nvalue = [6, 1]"] ;
827 -> 828 ;
829 [label="gini = 0.0\nsamples = 6\nvalue = [6, 0]"] ;
828 -> 829 ;
830 [label="gini = 0.0\nsamples = 1\nvalue = [0, 1]"] ;
828 -> 830 ;
831 [label="gini = 0.0\nsamples = 2\nvalue = [0, 2]"] ;
827 -> 831 ;
832 [label="gini = 0.0\nsamples = 8\nvalue = [8, 0]"] ;
826 -> 832 ;
833 [label="gini = 0.0\nsamples = 24\nvalue = [24, 0]"] ;
825 -> 833 ;
834 [label="X[6] <= 0.025\ngini = 0.5\nsamples = 2\nvalue = [1, 1]"] ;
824 -> 834 ;
835 [label="gini = 0.0\nsamples = 1\nvalue = [1, 0]"] ;
834 -> 835 ;
836 [label="gini = 0.0\nsamples = 1\nvalue = [0, 1]"] ;
834 -> 836 ;
837 [label="gini = 0.0\nsamples = 1\nvalue = [0, 1]"] ;
823 -> 837 ;
838 [label="X[5] <= 0.023\ngini = 0.32\nsamples = 15\nvalue = [3, 12]"] ;
778 -> 838 ;
839 [label="gini = 0.0\nsamples = 8\nvalue = [0, 8]"] ;
838 -> 839 ;
840 [label="X[2] <= 0.015\ngini = 0.49\nsamples = 7\nvalue = [3, 4]"] ;
838 -> 840 ;
841 [label="gini = 0.0\nsamples = 2\nvalue = [0, 2]"] ;
840 -> 841 ;
842 [label="X[3] <= 0.01\ngini = 0.48\nsamples = 5\nvalue = [3, 2]"] ;
840 -> 842 ;
843 [label="gini = 0.0\nsamples = 2\nvalue = [0, 2]"] ;
842 -> 843 ;
844 [label="gini = 0.0\nsamples = 3\nvalue = [3, 0]"] ;
842 -> 844 ;
845 [label="X[3] <= 0.002\ngini = 0.484\nsamples = 683\nvalue = [403, 280]"] ;
39 -> 845 ;
846 [label="X[8] <= 0.026\ngini = 0.37\nsamples = 200\nvalue = [151, 49]"] ;
845 -> 846 ;
847 [label="X[8] <= 0.001\ngini = 0.294\nsamples = 162\nvalue = [133, 29]"] ;
846 -> 847 ;
848 [label="X[1] <= 0.016\ngini = 0.32\nsamples = 10\nvalue = [2, 8]"] ;
847 -> 848 ;
849 [label="gini = 0.0\nsamples = 1\nvalue = [1, 0]"] ;
848 -> 849 ;
850 [label="X[7] <= 0.029\ngini = 0.198\nsamples = 9\nvalue = [1, 8]"] ;
848 -> 850 ;
851 [label="gini = 0.0\nsamples = 8\nvalue = [0, 8]"] ;
850 -> 851 ;
852 [label="gini = 0.0\nsamples = 1\nvalue = [1, 0]"] ;
850 -> 852 ;
853 [label="X[2] <= 0.015\ngini = 0.238\nsamples = 152\nvalue = [131, 21]"] ;
847 -> 853 ;
854 [label="X[0] <= 0.0\ngini = 0.203\nsamples = 148\nvalue = [131, 17]"] ;
853 -> 854 ;
855 [label="X[7] <= 0.01\ngini = 0.48\nsamples = 5\nvalue = [2, 3]"] ;
854 -> 855 ;
856 [label="gini = 0.0\nsamples = 3\nvalue = [0, 3]"] ;
855 -> 856 ;
857 [label="gini = 0.0\nsamples = 2\nvalue = [2, 0]"] ;
855 -> 857 ;
858 [label="X[1] <= 0.027\ngini = 0.177\nsamples = 143\nvalue = [129, 14]"] ;
854 -> 858 ;
859 [label="X[2] <= 0.01\ngini = 0.085\nsamples = 112\nvalue = [107, 5]"] ;
858 -> 859 ;
860 [label="gini = 0.0\nsamples = 1\nvalue = [0, 1]"] ;
859 -> 860 ;
861 [label="X[4] <= 0.012\ngini = 0.069\nsamples = 111\nvalue = [107, 4]"] ;
859 -> 861 ;
862 [label="X[5] <= 0.0\ngini = 0.02\nsamples = 99\nvalue = [98, 1]"] ;
861 -> 862 ;
863 [label="X[4] <= 0.003\ngini = 0.5\nsamples = 2\nvalue = [1, 1]"] ;
862 -> 863 ;
864 [label="gini = 0.0\nsamples = 1\nvalue = [1, 0]"] ;
863 -> 864 ;
865 [label="gini = 0.0\nsamples = 1\nvalue = [0, 1]"] ;
863 -> 865 ;
866 [label="gini = 0.0\nsamples = 97\nvalue = [97, 0]"] ;
862 -> 866 ;
867 [label="X[4] <= 0.016\ngini = 0.375\nsamples = 12\nvalue = [9, 3]"] ;
861 -> 867 ;
868 [label="X[0] <= 0.012\ngini = 0.375\nsamples = 4\nvalue = [1, 3]"] ;
867 -> 868 ;
869 [label="gini = 0.0\nsamples = 3\nvalue = [0, 3]"] ;
868 -> 869 ;
870 [label="gini = 0.0\nsamples = 1\nvalue = [1, 0]"] ;
868 -> 870 ;
871 [label="gini = 0.0\nsamples = 8\nvalue = [8, 0]"] ;
867 -> 871 ;
872 [label="X[8] <= 0.003\ngini = 0.412\nsamples = 31\nvalue = [22, 9]"] ;
858 -> 872 ;
873 [label="gini = 0.0\nsamples = 2\nvalue = [0, 2]"] ;
872 -> 873 ;
874 [label="X[0] <= 0.001\ngini = 0.366\nsamples = 29\nvalue = [22, 7]"] ;
872 -> 874 ;
875 [label="X[7] <= 0.007\ngini = 0.48\nsamples = 5\nvalue = [2, 3]"] ;
874 -> 875 ;
876 [label="gini = 0.0\nsamples = 3\nvalue = [0, 3]"] ;
875 -> 876 ;
877 [label="gini = 0.0\nsamples = 2\nvalue = [2, 0]"] ;
875 -> 877 ;
878 [label="X[4] <= 0.006\ngini = 0.278\nsamples = 24\nvalue = [20, 4]"] ;
874 -> 878 ;
879 [label="X[4] <= 0.0\ngini = 0.172\nsamples = 21\nvalue = [19, 2]"] ;
878 -> 879 ;
880 [label="gini = 0.0\nsamples = 1\nvalue = [0, 1]"] ;
879 -> 880 ;
881 [label="X[8] <= 0.006\ngini = 0.095\nsamples = 20\nvalue = [19, 1]"] ;
879 -> 881 ;
882 [label="X[9] <= 0.003\ngini = 0.375\nsamples = 4\nvalue = [3, 1]"] ;
881 -> 882 ;
883 [label="gini = 0.0\nsamples = 3\nvalue = [3, 0]"] ;
882 -> 883 ;
884 [label="gini = 0.0\nsamples = 1\nvalue = [0, 1]"] ;
882 -> 884 ;
885 [label="gini = 0.0\nsamples = 16\nvalue = [16, 0]"] ;
881 -> 885 ;
886 [label="X[6] <= 0.01\ngini = 0.444\nsamples = 3\nvalue = [1, 2]"] ;
878 -> 886 ;
887 [label="gini = 0.0\nsamples = 2\nvalue = [0, 2]"] ;
886 -> 887 ;
888 [label="gini = 0.0\nsamples = 1\nvalue = [1, 0]"] ;
886 -> 888 ;
889 [label="gini = 0.0\nsamples = 4\nvalue = [0, 4]"] ;
853 -> 889 ;
890 [label="X[9] <= 0.012\ngini = 0.499\nsamples = 38\nvalue = [18, 20]"] ;
846 -> 890 ;
891 [label="X[4] <= 0.002\ngini = 0.458\nsamples = 31\nvalue = [11, 20]"] ;
890 -> 891 ;
892 [label="X[4] <= 0.0\ngini = 0.308\nsamples = 21\nvalue = [4, 17]"] ;
891 -> 892 ;
893 [label="X[1] <= 0.025\ngini = 0.494\nsamples = 9\nvalue = [4, 5]"] ;
892 -> 893 ;
894 [label="gini = 0.0\nsamples = 4\nvalue = [0, 4]"] ;
893 -> 894 ;
895 [label="X[7] <= 0.013\ngini = 0.32\nsamples = 5\nvalue = [4, 1]"] ;
893 -> 895 ;
896 [label="gini = 0.0\nsamples = 4\nvalue = [4, 0]"] ;
895 -> 896 ;
897 [label="gini = 0.0\nsamples = 1\nvalue = [0, 1]"] ;
895 -> 897 ;
898 [label="gini = 0.0\nsamples = 12\nvalue = [0, 12]"] ;
892 -> 898 ;
899 [label="X[6] <= 0.002\ngini = 0.42\nsamples = 10\nvalue = [7, 3]"] ;
891 -> 899 ;
900 [label="gini = 0.0\nsamples = 7\nvalue = [7, 0]"] ;
899 -> 900 ;
901 [label="gini = 0.0\nsamples = 3\nvalue = [0, 3]"] ;
899 -> 901 ;
902 [label="gini = 0.0\nsamples = 7\nvalue = [7, 0]"] ;
890 -> 902 ;
903 [label="X[1] <= 0.036\ngini = 0.499\nsamples = 483\nvalue = [252, 231]"] ;
845 -> 903 ;
904 [label="X[0] <= 0.0\ngini = 0.496\nsamples = 459\nvalue = [249, 210]"] ;
903 -> 904 ;
905 [label="X[3] <= 0.017\ngini = 0.208\nsamples = 17\nvalue = [2, 15]"] ;
904 -> 905 ;
906 [label="gini = 0.0\nsamples = 12\nvalue = [0, 12]"] ;
905 -> 906 ;
907 [label="X[8] <= 0.011\ngini = 0.48\nsamples = 5\nvalue = [2, 3]"] ;
905 -> 907 ;
908 [label="X[5] <= 0.002\ngini = 0.444\nsamples = 3\nvalue = [2, 1]"] ;
907 -> 908 ;
909 [label="gini = 0.0\nsamples = 1\nvalue = [0, 1]"] ;
908 -> 909 ;
910 [label="gini = 0.0\nsamples = 2\nvalue = [2, 0]"] ;
908 -> 910 ;
911 [label="gini = 0.0\nsamples = 2\nvalue = [0, 2]"] ;
907 -> 911 ;
912 [label="X[9] <= 0.002\ngini = 0.493\nsamples = 442\nvalue = [247, 195]"] ;
904 -> 912 ;
913 [label="X[2] <= 0.013\ngini = 0.5\nsamples = 266\nvalue = [133, 133]"] ;
912 -> 913 ;
914 [label="X[0] <= 0.01\ngini = 0.47\nsamples = 119\nvalue = [74, 45]"] ;
913 -> 914 ;
915 [label="X[8] <= 0.001\ngini = 0.498\nsamples = 53\nvalue = [25, 28]"] ;
914 -> 915 ;
916 [label="gini = 0.0\nsamples = 9\nvalue = [9, 0]"] ;
915 -> 916 ;
917 [label="X[1] <= 0.018\ngini = 0.463\nsamples = 44\nvalue = [16, 28]"] ;
915 -> 917 ;
918 [label="X[8] <= 0.001\ngini = 0.459\nsamples = 14\nvalue = [9, 5]"] ;
917 -> 918 ;
919 [label="gini = 0.0\nsamples = 2\nvalue = [0, 2]"] ;
918 -> 919 ;
920 [label="X[0] <= 0.005\ngini = 0.375\nsamples = 12\nvalue = [9, 3]"] ;
918 -> 920 ;
921 [label="gini = 0.0\nsamples = 2\nvalue = [0, 2]"] ;
920 -> 921 ;
922 [label="X[0] <= 0.009\ngini = 0.18\nsamples = 10\nvalue = [9, 1]"] ;
920 -> 922 ;
923 [label="gini = 0.0\nsamples = 8\nvalue = [8, 0]"] ;
922 -> 923 ;
924 [label="X[5] <= 0.016\ngini = 0.5\nsamples = 2\nvalue = [1, 1]"] ;
922 -> 924 ;
925 [label="gini = 0.0\nsamples = 1\nvalue = [0, 1]"] ;
924 -> 925 ;
926 [label="gini = 0.0\nsamples = 1\nvalue = [1, 0]"] ;
924 -> 926 ;
927 [label="X[2] <= 0.012\ngini = 0.358\nsamples = 30\nvalue = [7, 23]"] ;
917 -> 927 ;
928 [label="X[8] <= 0.003\ngini = 0.236\nsamples = 22\nvalue = [3, 19]"] ;
927 -> 928 ;
929 [label="X[6] <= 0.02\ngini = 0.444\nsamples = 3\nvalue = [2, 1]"] ;
928 -> 929 ;
930 [label="gini = 0.0\nsamples = 2\nvalue = [2, 0]"] ;
929 -> 930 ;
931 [label="gini = 0.0\nsamples = 1\nvalue = [0, 1]"] ;
929 -> 931 ;
932 [label="X[9] <= 0.002\ngini = 0.1\nsamples = 19\nvalue = [1, 18]"] ;
928 -> 932 ;
933 [label="gini = 0.0\nsamples = 15\nvalue = [0, 15]"] ;
932 -> 933 ;
934 [label="X[5] <= 0.012\ngini = 0.375\nsamples = 4\nvalue = [1, 3]"] ;
932 -> 934 ;
935 [label="gini = 0.0\nsamples = 3\nvalue = [0, 3]"] ;
934 -> 935 ;
936 [label="gini = 0.0\nsamples = 1\nvalue = [1, 0]"] ;
934 -> 936 ;
937 [label="X[1] <= 0.027\ngini = 0.5\nsamples = 8\nvalue = [4, 4]"] ;
927 -> 937 ;
938 [label="X[9] <= 0.0\ngini = 0.32\nsamples = 5\nvalue = [4, 1]"] ;
937 -> 938 ;
939 [label="gini = 0.0\nsamples = 1\nvalue = [0, 1]"] ;
938 -> 939 ;
940 [label="gini = 0.0\nsamples = 4\nvalue = [4, 0]"] ;
938 -> 940 ;
941 [label="gini = 0.0\nsamples = 3\nvalue = [0, 3]"] ;
937 -> 941 ;
942 [label="X[8] <= 0.002\ngini = 0.382\nsamples = 66\nvalue = [49, 17]"] ;
914 -> 942 ;
943 [label="X[8] <= 0.0\ngini = 0.495\nsamples = 29\nvalue = [16, 13]"] ;
942 -> 943 ;
944 [label="X[1] <= 0.016\ngini = 0.36\nsamples = 17\nvalue = [13, 4]"] ;
943 -> 944 ;
945 [label="gini = 0.0\nsamples = 2\nvalue = [0, 2]"] ;
944 -> 945 ;
946 [label="X[3] <= 0.015\ngini = 0.231\nsamples = 15\nvalue = [13, 2]"] ;
944 -> 946 ;
947 [label="X[9] <= 0.0\ngini = 0.5\nsamples = 2\nvalue = [1, 1]"] ;
946 -> 947 ;
948 [label="gini = 0.0\nsamples = 1\nvalue = [0, 1]"] ;
947 -> 948 ;
949 [label="gini = 0.0\nsamples = 1\nvalue = [1, 0]"] ;
947 -> 949 ;
950 [label="X[2] <= 0.012\ngini = 0.142\nsamples = 13\nvalue = [12, 1]"] ;
946 -> 950 ;
951 [label="gini = 0.0\nsamples = 11\nvalue = [11, 0]"] ;
950 -> 951 ;
952 [label="X[3] <= 0.022\ngini = 0.5\nsamples = 2\nvalue = [1, 1]"] ;
950 -> 952 ;
953 [label="gini = 0.0\nsamples = 1\nvalue = [1, 0]"] ;
952 -> 953 ;
954 [label="gini = 0.0\nsamples = 1\nvalue = [0, 1]"] ;
952 -> 954 ;
955 [label="X[4] <= 0.002\ngini = 0.375\nsamples = 12\nvalue = [3, 9]"] ;
943 -> 955 ;
956 [label="gini = 0.0\nsamples = 2\nvalue = [2, 0]"] ;
955 -> 956 ;
957 [label="X[1] <= 0.017\ngini = 0.18\nsamples = 10\nvalue = [1, 9]"] ;
955 -> 957 ;
958 [label="X[6] <= 0.021\ngini = 0.5\nsamples = 2\nvalue = [1, 1]"] ;
957 -> 958 ;
959 [label="gini = 0.0\nsamples = 1\nvalue = [1, 0]"] ;
958 -> 959 ;
960 [label="gini = 0.0\nsamples = 1\nvalue = [0, 1]"] ;
958 -> 960 ;
961 [label="gini = 0.0\nsamples = 8\nvalue = [0, 8]"] ;
957 -> 961 ;
962 [label="X[7] <= 0.01\ngini = 0.193\nsamples = 37\nvalue = [33, 4]"] ;
942 -> 962 ;
963 [label="X[2] <= 0.01\ngini = 0.059\nsamples = 33\nvalue = [32, 1]"] ;
962 -> 963 ;
964 [label="gini = 0.0\nsamples = 1\nvalue = [0, 1]"] ;
963 -> 964 ;
965 [label="gini = 0.0\nsamples = 32\nvalue = [32, 0]"] ;
963 -> 965 ;
966 [label="X[3] <= 0.02\ngini = 0.375\nsamples = 4\nvalue = [1, 3]"] ;
962 -> 966 ;
967 [label="gini = 0.0\nsamples = 3\nvalue = [0, 3]"] ;
966 -> 967 ;
968 [label="gini = 0.0\nsamples = 1\nvalue = [1, 0]"] ;
966 -> 968 ;
969 [label="X[4] <= 0.01\ngini = 0.481\nsamples = 147\nvalue = [59, 88]"] ;
913 -> 969 ;
970 [label="X[8] <= 0.003\ngini = 0.435\nsamples = 97\nvalue = [31, 66]"] ;
969 -> 970 ;
971 [label="X[3] <= 0.02\ngini = 0.5\nsamples = 35\nvalue = [18, 17]"] ;
970 -> 971 ;
972 [label="X[1] <= 0.023\ngini = 0.454\nsamples = 23\nvalue = [8, 15]"] ;
971 -> 972 ;
973 [label="X[8] <= 0.001\ngini = 0.498\nsamples = 17\nvalue = [8, 9]"] ;
972 -> 973 ;
974 [label="X[2] <= 0.014\ngini = 0.346\nsamples = 9\nvalue = [2, 7]"] ;
973 -> 974 ;
975 [label="gini = 0.0\nsamples = 6\nvalue = [0, 6]"] ;
974 -> 975 ;
976 [label="X[5] <= 0.002\ngini = 0.444\nsamples = 3\nvalue = [2, 1]"] ;
974 -> 976 ;
977 [label="gini = 0.0\nsamples = 1\nvalue = [0, 1]"] ;
976 -> 977 ;
978 [label="gini = 0.0\nsamples = 2\nvalue = [2, 0]"] ;
976 -> 978 ;
979 [label="X[0] <= 0.006\ngini = 0.375\nsamples = 8\nvalue = [6, 2]"] ;
973 -> 979 ;
980 [label="gini = 0.0\nsamples = 1\nvalue = [0, 1]"] ;
979 -> 980 ;
981 [label="X[9] <= 0.0\ngini = 0.245\nsamples = 7\nvalue = [6, 1]"] ;
979 -> 981 ;
982 [label="gini = 0.0\nsamples = 1\nvalue = [0, 1]"] ;
981 -> 982 ;
983 [label="gini = 0.0\nsamples = 6\nvalue = [6, 0]"] ;
981 -> 983 ;
984 [label="gini = 0.0\nsamples = 6\nvalue = [0, 6]"] ;
972 -> 984 ;
985 [label="X[7] <= 0.032\ngini = 0.278\nsamples = 12\nvalue = [10, 2]"] ;
971 -> 985 ;
986 [label="X[4] <= 0.006\ngini = 0.165\nsamples = 11\nvalue = [10, 1]"] ;
985 -> 986 ;
987 [label="gini = 0.0\nsamples = 10\nvalue = [10, 0]"] ;
986 -> 987 ;
988 [label="gini = 0.0\nsamples = 1\nvalue = [0, 1]"] ;
986 -> 988 ;
989 [label="gini = 0.0\nsamples = 1\nvalue = [0, 1]"] ;
985 -> 989 ;
990 [label="X[7] <= 0.026\ngini = 0.331\nsamples = 62\nvalue = [13, 49]"] ;
970 -> 990 ;
991 [label="X[8] <= 0.012\ngini = 0.299\nsamples = 60\nvalue = [11, 49]"] ;
990 -> 991 ;
992 [label="X[8] <= 0.007\ngini = 0.211\nsamples = 50\nvalue = [6, 44]"] ;
991 -> 992 ;
993 [label="X[8] <= 0.005\ngini = 0.328\nsamples = 29\nvalue = [6, 23]"] ;
992 -> 993 ;
994 [label="gini = 0.0\nsamples = 15\nvalue = [0, 15]"] ;
993 -> 994 ;
995 [label="X[8] <= 0.006\ngini = 0.49\nsamples = 14\nvalue = [6, 8]"] ;
993 -> 995 ;
996 [label="X[5] <= 0.013\ngini = 0.408\nsamples = 7\nvalue = [5, 2]"] ;
995 -> 996 ;
997 [label="gini = 0.0\nsamples = 5\nvalue = [5, 0]"] ;
996 -> 997 ;
998 [label="gini = 0.0\nsamples = 2\nvalue = [0, 2]"] ;
996 -> 998 ;
999 [label="X[8] <= 0.007\ngini = 0.245\nsamples = 7\nvalue = [1, 6]"] ;
995 -> 999 ;
1000 [label="gini = 0.0\nsamples = 6\nvalue = [0, 6]"] ;
999 -> 1000 ;
1001 [label="gini = 0.0\nsamples = 1\nvalue = [1, 0]"] ;
999 -> 1001 ;
1002 [label="gini = 0.0\nsamples = 21\nvalue = [0, 21]"] ;
992 -> 1002 ;
1003 [label="X[4] <= 0.001\ngini = 0.5\nsamples = 10\nvalue = [5, 5]"] ;
991 -> 1003 ;
1004 [label="gini = 0.0\nsamples = 4\nvalue = [0, 4]"] ;
1003 -> 1004 ;
1005 [label="X[6] <= 0.018\ngini = 0.278\nsamples = 6\nvalue = [5, 1]"] ;
1003 -> 1005 ;
1006 [label="gini = 0.0\nsamples = 5\nvalue = [5, 0]"] ;
1005 -> 1006 ;
1007 [label="gini = 0.0\nsamples = 1\nvalue = [0, 1]"] ;
1005 -> 1007 ;
1008 [label="gini = 0.0\nsamples = 2\nvalue = [2, 0]"] ;
990 -> 1008 ;
1009 [label="X[4] <= 0.015\ngini = 0.493\nsamples = 50\nvalue = [28, 22]"] ;
969 -> 1009 ;
1010 [label="X[9] <= 0.001\ngini = 0.278\nsamples = 18\nvalue = [15, 3]"] ;
1009 -> 1010 ;
1011 [label="X[4] <= 0.011\ngini = 0.49\nsamples = 7\nvalue = [4, 3]"] ;
1010 -> 1011 ;
1012 [label="gini = 0.0\nsamples = 4\nvalue = [4, 0]"] ;
1011 -> 1012 ;
1013 [label="gini = 0.0\nsamples = 3\nvalue = [0, 3]"] ;
1011 -> 1013 ;
1014 [label="gini = 0.0\nsamples = 11\nvalue = [11, 0]"] ;
1010 -> 1014 ;
1015 [label="X[3] <= 0.02\ngini = 0.482\nsamples = 32\nvalue = [13, 19]"] ;
1009 -> 1015 ;
1016 [label="X[6] <= 0.012\ngini = 0.386\nsamples = 23\nvalue = [6, 17]"] ;
1015 -> 1016 ;
1017 [label="gini = 0.0\nsamples = 2\nvalue = [2, 0]"] ;
1016 -> 1017 ;
1018 [label="X[2] <= 0.014\ngini = 0.308\nsamples = 21\nvalue = [4, 17]"] ;
1016 -> 1018 ;
1019 [label="X[8] <= 0.001\ngini = 0.494\nsamples = 9\nvalue = [4, 5]"] ;
1018 -> 1019 ;
1020 [label="gini = 0.0\nsamples = 2\nvalue = [2, 0]"] ;
1019 -> 1020 ;
1021 [label="X[9] <= 0.0\ngini = 0.408\nsamples = 7\nvalue = [2, 5]"] ;
1019 -> 1021 ;
1022 [label="gini = 0.0\nsamples = 4\nvalue = [0, 4]"] ;
1021 -> 1022 ;
1023 [label="X[9] <= 0.001\ngini = 0.444\nsamples = 3\nvalue = [2, 1]"] ;
1021 -> 1023 ;
1024 [label="gini = 0.0\nsamples = 2\nvalue = [2, 0]"] ;
1023 -> 1024 ;
1025 [label="gini = 0.0\nsamples = 1\nvalue = [0, 1]"] ;
1023 -> 1025 ;
1026 [label="gini = 0.0\nsamples = 12\nvalue = [0, 12]"] ;
1018 -> 1026 ;
1027 [label="X[8] <= 0.014\ngini = 0.346\nsamples = 9\nvalue = [7, 2]"] ;
1015 -> 1027 ;
1028 [label="X[4] <= 0.03\ngini = 0.219\nsamples = 8\nvalue = [7, 1]"] ;
1027 -> 1028 ;
1029 [label="gini = 0.0\nsamples = 7\nvalue = [7, 0]"] ;
1028 -> 1029 ;
1030 [label="gini = 0.0\nsamples = 1\nvalue = [0, 1]"] ;
1028 -> 1030 ;
1031 [label="gini = 0.0\nsamples = 1\nvalue = [0, 1]"] ;
1027 -> 1031 ;
1032 [label="X[4] <= 0.014\ngini = 0.456\nsamples = 176\nvalue = [114, 62]"] ;
912 -> 1032 ;
1033 [label="X[8] <= 0.045\ngini = 0.423\nsamples = 161\nvalue = [112, 49]"] ;
1032 -> 1033 ;
1034 [label="X[7] <= 0.02\ngini = 0.389\nsamples = 144\nvalue = [106, 38]"] ;
1033 -> 1034 ;
1035 [label="X[8] <= 0.012\ngini = 0.421\nsamples = 123\nvalue = [86, 37]"] ;
1034 -> 1035 ;
1036 [label="X[5] <= 0.01\ngini = 0.333\nsamples = 71\nvalue = [56, 15]"] ;
1035 -> 1036 ;
1037 [label="X[1] <= 0.028\ngini = 0.241\nsamples = 57\nvalue = [49, 8]"] ;
1036 -> 1037 ;
1038 [label="X[2] <= 0.01\ngini = 0.177\nsamples = 51\nvalue = [46, 5]"] ;
1037 -> 1038 ;
1039 [label="gini = 0.0\nsamples = 1\nvalue = [0, 1]"] ;
1038 -> 1039 ;
1040 [label="X[6] <= 0.014\ngini = 0.147\nsamples = 50\nvalue = [46, 4]"] ;
1038 -> 1040 ;
1041 [label="X[6] <= 0.008\ngini = 0.115\nsamples = 49\nvalue = [46, 3]"] ;
1040 -> 1041 ;
1042 [label="gini = 0.0\nsamples = 28\nvalue = [28, 0]"] ;
1041 -> 1042 ;
1043 [label="X[2] <= 0.011\ngini = 0.245\nsamples = 21\nvalue = [18, 3]"] ;
1041 -> 1043 ;
1044 [label="gini = 0.0\nsamples = 1\nvalue = [0, 1]"] ;
1043 -> 1044 ;
1045 [label="X[2] <= 0.015\ngini = 0.18\nsamples = 20\nvalue = [18, 2]"] ;
1043 -> 1045 ;
1046 [label="X[0] <= 0.002\ngini = 0.1\nsamples = 19\nvalue = [18, 1]"] ;
1045 -> 1046 ;
1047 [label="X[5] <= 0.005\ngini = 0.5\nsamples = 2\nvalue = [1, 1]"] ;
1046 -> 1047 ;
1048 [label="gini = 0.0\nsamples = 1\nvalue = [1, 0]"] ;
1047 -> 1048 ;
1049 [label="gini = 0.0\nsamples = 1\nvalue = [0, 1]"] ;
1047 -> 1049 ;
1050 [label="gini = 0.0\nsamples = 17\nvalue = [17, 0]"] ;
1046 -> 1050 ;
1051 [label="gini = 0.0\nsamples = 1\nvalue = [0, 1]"] ;
1045 -> 1051 ;
1052 [label="gini = 0.0\nsamples = 1\nvalue = [0, 1]"] ;
1040 -> 1052 ;
1053 [label="X[4] <= 0.003\ngini = 0.5\nsamples = 6\nvalue = [3, 3]"] ;
1037 -> 1053 ;
1054 [label="gini = 0.0\nsamples = 3\nvalue = [0, 3]"] ;
1053 -> 1054 ;
1055 [label="gini = 0.0\nsamples = 3\nvalue = [3, 0]"] ;
1053 -> 1055 ;
1056 [label="X[5] <= 0.01\ngini = 0.5\nsamples = 14\nvalue = [7, 7]"] ;
1036 -> 1056 ;
1057 [label="X[4] <= 0.01\ngini = 0.346\nsamples = 9\nvalue = [2, 7]"] ;
1056 -> 1057 ;
1058 [label="gini = 0.0\nsamples = 6\nvalue = [0, 6]"] ;
1057 -> 1058 ;
1059 [label="X[3] <= 0.011\ngini = 0.444\nsamples = 3\nvalue = [2, 1]"] ;
1057 -> 1059 ;
1060 [label="gini = 0.0\nsamples = 1\nvalue = [0, 1]"] ;
1059 -> 1060 ;
1061 [label="gini = 0.0\nsamples = 2\nvalue = [2, 0]"] ;
1059 -> 1061 ;
1062 [label="gini = 0.0\nsamples = 5\nvalue = [5, 0]"] ;
1056 -> 1062 ;
1063 [label="X[8] <= 0.014\ngini = 0.488\nsamples = 52\nvalue = [30, 22]"] ;
1035 -> 1063 ;
1064 [label="X[6] <= 0.002\ngini = 0.245\nsamples = 7\nvalue = [1, 6]"] ;
1063 -> 1064 ;
1065 [label="gini = 0.0\nsamples = 1\nvalue = [1, 0]"] ;
1064 -> 1065 ;
1066 [label="gini = 0.0\nsamples = 6\nvalue = [0, 6]"] ;
1064 -> 1066 ;
1067 [label="X[2] <= 0.013\ngini = 0.458\nsamples = 45\nvalue = [29, 16]"] ;
1063 -> 1067 ;
1068 [label="X[2] <= 0.012\ngini = 0.499\nsamples = 21\nvalue = [10, 11]"] ;
1067 -> 1068 ;
1069 [label="X[4] <= 0.003\ngini = 0.397\nsamples = 11\nvalue = [8, 3]"] ;
1068 -> 1069 ;
1070 [label="X[6] <= 0.002\ngini = 0.198\nsamples = 9\nvalue = [8, 1]"] ;
1069 -> 1070 ;
1071 [label="gini = 0.0\nsamples = 7\nvalue = [7, 0]"] ;
1070 -> 1071 ;
1072 [label="X[0] <= 0.003\ngini = 0.5\nsamples = 2\nvalue = [1, 1]"] ;
1070 -> 1072 ;
1073 [label="gini = 0.0\nsamples = 1\nvalue = [0, 1]"] ;
1072 -> 1073 ;
1074 [label="gini = 0.0\nsamples = 1\nvalue = [1, 0]"] ;
1072 -> 1074 ;
1075 [label="gini = 0.0\nsamples = 2\nvalue = [0, 2]"] ;
1069 -> 1075 ;
1076 [label="X[8] <= 0.016\ngini = 0.32\nsamples = 10\nvalue = [2, 8]"] ;
1068 -> 1076 ;
1077 [label="gini = 0.0\nsamples = 1\nvalue = [1, 0]"] ;
1076 -> 1077 ;
1078 [label="X[5] <= 0.0\ngini = 0.198\nsamples = 9\nvalue = [1, 8]"] ;
1076 -> 1078 ;
1079 [label="gini = 0.0\nsamples = 1\nvalue = [1, 0]"] ;
1078 -> 1079 ;
1080 [label="gini = 0.0\nsamples = 8\nvalue = [0, 8]"] ;
1078 -> 1080 ;
1081 [label="X[6] <= 0.01\ngini = 0.33\nsamples = 24\nvalue = [19, 5]"] ;
1067 -> 1081 ;
1082 [label="X[3] <= 0.024\ngini = 0.236\nsamples = 22\nvalue = [19, 3]"] ;
1081 -> 1082 ;
1083 [label="X[1] <= 0.022\ngini = 0.172\nsamples = 21\nvalue = [19, 2]"] ;
1082 -> 1083 ;
1084 [label="gini = 0.0\nsamples = 14\nvalue = [14, 0]"] ;
1083 -> 1084 ;
1085 [label="X[1] <= 0.025\ngini = 0.408\nsamples = 7\nvalue = [5, 2]"] ;
1083 -> 1085 ;
1086 [label="X[6] <= 0.001\ngini = 0.444\nsamples = 3\nvalue = [1, 2]"] ;
1085 -> 1086 ;
1087 [label="gini = 0.0\nsamples = 1\nvalue = [1, 0]"] ;
1086 -> 1087 ;
1088 [label="gini = 0.0\nsamples = 2\nvalue = [0, 2]"] ;
1086 -> 1088 ;
1089 [label="gini = 0.0\nsamples = 4\nvalue = [4, 0]"] ;
1085 -> 1089 ;
1090 [label="gini = 0.0\nsamples = 1\nvalue = [0, 1]"] ;
1082 -> 1090 ;
1091 [label="gini = 0.0\nsamples = 2\nvalue = [0, 2]"] ;
1081 -> 1091 ;
1092 [label="X[2] <= 0.015\ngini = 0.091\nsamples = 21\nvalue = [20, 1]"] ;
1034 -> 1092 ;
1093 [label="gini = 0.0\nsamples = 19\nvalue = [19, 0]"] ;
1092 -> 1093 ;
1094 [label="X[8] <= 0.007\ngini = 0.5\nsamples = 2\nvalue = [1, 1]"] ;
1092 -> 1094 ;
1095 [label="gini = 0.0\nsamples = 1\nvalue = [0, 1]"] ;
1094 -> 1095 ;
1096 [label="gini = 0.0\nsamples = 1\nvalue = [1, 0]"] ;
1094 -> 1096 ;
1097 [label="X[5] <= 0.0\ngini = 0.457\nsamples = 17\nvalue = [6, 11]"] ;
1033 -> 1097 ;
1098 [label="gini = 0.0\nsamples = 2\nvalue = [2, 0]"] ;
1097 -> 1098 ;
1099 [label="X[0] <= 0.001\ngini = 0.391\nsamples = 15\nvalue = [4, 11]"] ;
1097 -> 1099 ;
1100 [label="gini = 0.0\nsamples = 7\nvalue = [0, 7]"] ;
1099 -> 1100 ;
1101 [label="X[4] <= 0.001\ngini = 0.5\nsamples = 8\nvalue = [4, 4]"] ;
1099 -> 1101 ;
1102 [label="X[9] <= 0.004\ngini = 0.32\nsamples = 5\nvalue = [4, 1]"] ;
1101 -> 1102 ;
1103 [label="gini = 0.0\nsamples = 1\nvalue = [0, 1]"] ;
1102 -> 1103 ;
1104 [label="gini = 0.0\nsamples = 4\nvalue = [4, 0]"] ;
1102 -> 1104 ;
1105 [label="gini = 0.0\nsamples = 3\nvalue = [0, 3]"] ;
1101 -> 1105 ;
1106 [label="X[9] <= 0.58\ngini = 0.231\nsamples = 15\nvalue = [2, 13]"] ;
1032 -> 1106 ;
1107 [label="X[6] <= 0.023\ngini = 0.133\nsamples = 14\nvalue = [1, 13]"] ;
1106 -> 1107 ;
1108 [label="gini = 0.0\nsamples = 12\nvalue = [0, 12]"] ;
1107 -> 1108 ;
1109 [label="X[4] <= 0.029\ngini = 0.5\nsamples = 2\nvalue = [1, 1]"] ;
1107 -> 1109 ;
1110 [label="gini = 0.0\nsamples = 1\nvalue = [1, 0]"] ;
1109 -> 1110 ;
1111 [label="gini = 0.0\nsamples = 1\nvalue = [0, 1]"] ;
1109 -> 1111 ;
1112 [label="gini = 0.0\nsamples = 1\nvalue = [1, 0]"] ;
1106 -> 1112 ;
1113 [label="X[4] <= 0.015\ngini = 0.219\nsamples = 24\nvalue = [3, 21]"] ;
903 -> 1113 ;
1114 [label="X[4] <= 0.0\ngini = 0.091\nsamples = 21\nvalue = [1, 20]"] ;
1113 -> 1114 ;
1115 [label="gini = 0.0\nsamples = 1\nvalue = [1, 0]"] ;
1114 -> 1115 ;
1116 [label="gini = 0.0\nsamples = 20\nvalue = [0, 20]"] ;
1114 -> 1116 ;
1117 [label="X[1] <= 0.039\ngini = 0.444\nsamples = 3\nvalue = [2, 1]"] ;
1113 -> 1117 ;
1118 [label="gini = 0.0\nsamples = 1\nvalue = [0, 1]"] ;
1117 -> 1118 ;
1119 [label="gini = 0.0\nsamples = 2\nvalue = [2, 0]"] ;
1117 -> 1119 ;
1120 [label="X[2] <= 0.018\ngini = 0.498\nsamples = 1012\nvalue = [478, 534]"] ;
0 -> 1120 [labeldistance=2.5, labelangle=-45, headlabel="False"] ;
1121 [label="X[6] <= 0.007\ngini = 0.498\nsamples = 749\nvalue = [397, 352]"] ;
1120 -> 1121 ;
1122 [label="X[8] <= 0.01\ngini = 0.46\nsamples = 388\nvalue = [249, 139]"] ;
1121 -> 1122 ;
1123 [label="X[9] <= 0.003\ngini = 0.363\nsamples = 176\nvalue = [134, 42]"] ;
1122 -> 1123 ;
1124 [label="X[0] <= 0.014\ngini = 0.454\nsamples = 89\nvalue = [58, 31]"] ;
1123 -> 1124 ;
1125 [label="X[0] <= 0.001\ngini = 0.485\nsamples = 75\nvalue = [44, 31]"] ;
1124 -> 1125 ;
1126 [label="gini = 0.0\nsamples = 9\nvalue = [9, 0]"] ;
1125 -> 1126 ;
1127 [label="X[4] <= 0.002\ngini = 0.498\nsamples = 66\nvalue = [35, 31]"] ;
1125 -> 1127 ;
1128 [label="X[8] <= 0.005\ngini = 0.403\nsamples = 25\nvalue = [7, 18]"] ;
1127 -> 1128 ;
1129 [label="X[0] <= 0.009\ngini = 0.492\nsamples = 16\nvalue = [7, 9]"] ;
1128 -> 1129 ;
1130 [label="X[4] <= 0.001\ngini = 0.463\nsamples = 11\nvalue = [7, 4]"] ;
1129 -> 1130 ;
1131 [label="X[5] <= 0.001\ngini = 0.245\nsamples = 7\nvalue = [6, 1]"] ;
1130 -> 1131 ;
1132 [label="gini = 0.0\nsamples = 1\nvalue = [0, 1]"] ;
1131 -> 1132 ;
1133 [label="gini = 0.0\nsamples = 6\nvalue = [6, 0]"] ;
1131 -> 1133 ;
1134 [label="X[8] <= 0.004\ngini = 0.375\nsamples = 4\nvalue = [1, 3]"] ;
1130 -> 1134 ;
1135 [label="gini = 0.0\nsamples = 3\nvalue = [0, 3]"] ;
1134 -> 1135 ;
1136 [label="gini = 0.0\nsamples = 1\nvalue = [1, 0]"] ;
1134 -> 1136 ;
1137 [label="gini = 0.0\nsamples = 5\nvalue = [0, 5]"] ;
1129 -> 1137 ;
1138 [label="gini = 0.0\nsamples = 9\nvalue = [0, 9]"] ;
1128 -> 1138 ;
1139 [label="X[0] <= 0.002\ngini = 0.433\nsamples = 41\nvalue = [28, 13]"] ;
1127 -> 1139 ;
1140 [label="gini = 0.0\nsamples = 3\nvalue = [0, 3]"] ;
1139 -> 1140 ;
1141 [label="X[6] <= 0.005\ngini = 0.388\nsamples = 38\nvalue = [28, 10]"] ;
1139 -> 1141 ;
1142 [label="X[2] <= 0.018\ngini = 0.327\nsamples = 34\nvalue = [27, 7]"] ;
1141 -> 1142 ;
1143 [label="X[4] <= 0.011\ngini = 0.271\nsamples = 31\nvalue = [26, 5]"] ;
1142 -> 1143 ;
1144 [label="X[1] <= 0.006\ngini = 0.153\nsamples = 24\nvalue = [22, 2]"] ;
1143 -> 1144 ;
1145 [label="X[2] <= 0.016\ngini = 0.444\nsamples = 6\nvalue = [4, 2]"] ;
1144 -> 1145 ;
1146 [label="gini = 0.0\nsamples = 2\nvalue = [0, 2]"] ;
1145 -> 1146 ;
1147 [label="gini = 0.0\nsamples = 4\nvalue = [4, 0]"] ;
1145 -> 1147 ;
1148 [label="gini = 0.0\nsamples = 18\nvalue = [18, 0]"] ;
1144 -> 1148 ;
1149 [label="X[3] <= 0.015\ngini = 0.49\nsamples = 7\nvalue = [4, 3]"] ;
1143 -> 1149 ;
1150 [label="gini = 0.0\nsamples = 3\nvalue = [3, 0]"] ;
1149 -> 1150 ;
1151 [label="X[2] <= 0.017\ngini = 0.375\nsamples = 4\nvalue = [1, 3]"] ;
1149 -> 1151 ;
1152 [label="gini = 0.0\nsamples = 3\nvalue = [0, 3]"] ;
1151 -> 1152 ;
1153 [label="gini = 0.0\nsamples = 1\nvalue = [1, 0]"] ;
1151 -> 1153 ;
1154 [label="X[6] <= 0.003\ngini = 0.444\nsamples = 3\nvalue = [1, 2]"] ;
1142 -> 1154 ;
1155 [label="gini = 0.0\nsamples = 2\nvalue = [0, 2]"] ;
1154 -> 1155 ;
1156 [label="gini = 0.0\nsamples = 1\nvalue = [1, 0]"] ;
1154 -> 1156 ;
1157 [label="X[6] <= 0.006\ngini = 0.375\nsamples = 4\nvalue = [1, 3]"] ;
1141 -> 1157 ;
1158 [label="gini = 0.0\nsamples = 3\nvalue = [0, 3]"] ;
1157 -> 1158 ;
1159 [label="gini = 0.0\nsamples = 1\nvalue = [1, 0]"] ;
1157 -> 1159 ;
1160 [label="gini = 0.0\nsamples = 14\nvalue = [14, 0]"] ;
1124 -> 1160 ;
1161 [label="X[2] <= 0.018\ngini = 0.221\nsamples = 87\nvalue = [76, 11]"] ;
1123 -> 1161 ;
1162 [label="X[0] <= 0.008\ngini = 0.176\nsamples = 82\nvalue = [74, 8]"] ;
1161 -> 1162 ;
1163 [label="X[4] <= 0.0\ngini = 0.158\nsamples = 81\nvalue = [74, 7]"] ;
1162 -> 1163 ;
1164 [label="X[4] <= 0.0\ngini = 0.469\nsamples = 8\nvalue = [5, 3]"] ;
1163 -> 1164 ;
1165 [label="gini = 0.0\nsamples = 4\nvalue = [4, 0]"] ;
1164 -> 1165 ;
1166 [label="X[5] <= 0.005\ngini = 0.375\nsamples = 4\nvalue = [1, 3]"] ;
1164 -> 1166 ;
1167 [label="gini = 0.0\nsamples = 3\nvalue = [0, 3]"] ;
1166 -> 1167 ;
1168 [label="gini = 0.0\nsamples = 1\nvalue = [1, 0]"] ;
1166 -> 1168 ;
1169 [label="X[8] <= 0.007\ngini = 0.104\nsamples = 73\nvalue = [69, 4]"] ;
1163 -> 1169 ;
1170 [label="gini = 0.0\nsamples = 41\nvalue = [41, 0]"] ;
1169 -> 1170 ;
1171 [label="X[8] <= 0.007\ngini = 0.219\nsamples = 32\nvalue = [28, 4]"] ;
1169 -> 1171 ;
1172 [label="gini = 0.0\nsamples = 1\nvalue = [0, 1]"] ;
1171 -> 1172 ;
1173 [label="X[5] <= 0.006\ngini = 0.175\nsamples = 31\nvalue = [28, 3]"] ;
1171 -> 1173 ;
1174 [label="X[5] <= 0.005\ngini = 0.124\nsamples = 30\nvalue = [28, 2]"] ;
1173 -> 1174 ;
1175 [label="gini = 0.0\nsamples = 19\nvalue = [19, 0]"] ;
1174 -> 1175 ;
1176 [label="X[9] <= 0.004\ngini = 0.298\nsamples = 11\nvalue = [9, 2]"] ;
1174 -> 1176 ;
1177 [label="gini = 0.0\nsamples = 9\nvalue = [9, 0]"] ;
1176 -> 1177 ;
1178 [label="gini = 0.0\nsamples = 2\nvalue = [0, 2]"] ;
1176 -> 1178 ;
1179 [label="gini = 0.0\nsamples = 1\nvalue = [0, 1]"] ;
1173 -> 1179 ;
1180 [label="gini = 0.0\nsamples = 1\nvalue = [0, 1]"] ;
1162 -> 1180 ;
1181 [label="X[5] <= 0.003\ngini = 0.48\nsamples = 5\nvalue = [2, 3]"] ;
1161 -> 1181 ;
1182 [label="gini = 0.0\nsamples = 2\nvalue = [2, 0]"] ;
1181 -> 1182 ;
1183 [label="gini = 0.0\nsamples = 3\nvalue = [0, 3]"] ;
1181 -> 1183 ;
1184 [label="X[9] <= 0.004\ngini = 0.496\nsamples = 212\nvalue = [115, 97]"] ;
1122 -> 1184 ;
1185 [label="X[2] <= 0.017\ngini = 0.448\nsamples = 62\nvalue = [21, 41]"] ;
1184 -> 1185 ;
1186 [label="X[9] <= 0.002\ngini = 0.498\nsamples = 32\nvalue = [17, 15]"] ;
1185 -> 1186 ;
1187 [label="gini = 0.0\nsamples = 7\nvalue = [0, 7]"] ;
1186 -> 1187 ;
1188 [label="X[4] <= 0.003\ngini = 0.435\nsamples = 25\nvalue = [17, 8]"] ;
1186 -> 1188 ;
1189 [label="X[4] <= 0.0\ngini = 0.5\nsamples = 16\nvalue = [8, 8]"] ;
1188 -> 1189 ;
1190 [label="gini = 0.0\nsamples = 3\nvalue = [3, 0]"] ;
1189 -> 1190 ;
1191 [label="X[6] <= 0.001\ngini = 0.473\nsamples = 13\nvalue = [5, 8]"] ;
1189 -> 1191 ;
1192 [label="gini = 0.0\nsamples = 2\nvalue = [2, 0]"] ;
1191 -> 1192 ;
1193 [label="X[8] <= 0.014\ngini = 0.397\nsamples = 11\nvalue = [3, 8]"] ;
1191 -> 1193 ;
1194 [label="gini = 0.0\nsamples = 5\nvalue = [0, 5]"] ;
1193 -> 1194 ;
1195 [label="X[0] <= 0.001\ngini = 0.5\nsamples = 6\nvalue = [3, 3]"] ;
1193 -> 1195 ;
1196 [label="gini = 0.0\nsamples = 2\nvalue = [0, 2]"] ;
1195 -> 1196 ;
1197 [label="X[8] <= 0.016\ngini = 0.375\nsamples = 4\nvalue = [3, 1]"] ;
1195 -> 1197 ;
1198 [label="gini = 0.0\nsamples = 3\nvalue = [3, 0]"] ;
1197 -> 1198 ;
1199 [label="gini = 0.0\nsamples = 1\nvalue = [0, 1]"] ;
1197 -> 1199 ;
1200 [label="gini = 0.0\nsamples = 9\nvalue = [9, 0]"] ;
1188 -> 1200 ;
1201 [label="X[1] <= 0.005\ngini = 0.231\nsamples = 30\nvalue = [4, 26]"] ;
1185 -> 1201 ;
1202 [label="X[7] <= 0.01\ngini = 0.375\nsamples = 4\nvalue = [3, 1]"] ;
1201 -> 1202 ;
1203 [label="gini = 0.0\nsamples = 3\nvalue = [3, 0]"] ;
1202 -> 1203 ;
1204 [label="gini = 0.0\nsamples = 1\nvalue = [0, 1]"] ;
1202 -> 1204 ;
1205 [label="X[9] <= 0.001\ngini = 0.074\nsamples = 26\nvalue = [1, 25]"] ;
1201 -> 1205 ;
1206 [label="gini = 0.0\nsamples = 1\nvalue = [1, 0]"] ;
1205 -> 1206 ;
1207 [label="gini = 0.0\nsamples = 25\nvalue = [0, 25]"] ;
1205 -> 1207 ;
1208 [label="X[8] <= 0.035\ngini = 0.468\nsamples = 150\nvalue = [94, 56]"] ;
1184 -> 1208 ;
1209 [label="X[5] <= 0.002\ngini = 0.416\nsamples = 115\nvalue = [81, 34]"] ;
1208 -> 1209 ;
1210 [label="X[9] <= 0.005\ngini = 0.287\nsamples = 46\nvalue = [38, 8]"] ;
1209 -> 1210 ;
1211 [label="gini = 0.0\nsamples = 2\nvalue = [0, 2]"] ;
1210 -> 1211 ;
1212 [label="X[1] <= 0.048\ngini = 0.236\nsamples = 44\nvalue = [38, 6]"] ;
1210 -> 1212 ;
1213 [label="X[7] <= 0.014\ngini = 0.176\nsamples = 41\nvalue = [37, 4]"] ;
1212 -> 1213 ;
1214 [label="X[3] <= 0.017\ngini = 0.111\nsamples = 34\nvalue = [32, 2]"] ;
1213 -> 1214 ;
1215 [label="X[2] <= 0.018\ngini = 0.062\nsamples = 31\nvalue = [30, 1]"] ;
1214 -> 1215 ;
1216 [label="gini = 0.0\nsamples = 28\nvalue = [28, 0]"] ;
1215 -> 1216 ;
1217 [label="X[7] <= 0.007\ngini = 0.444\nsamples = 3\nvalue = [2, 1]"] ;
1215 -> 1217 ;
1218 [label="gini = 0.0\nsamples = 1\nvalue = [0, 1]"] ;
1217 -> 1218 ;
1219 [label="gini = 0.0\nsamples = 2\nvalue = [2, 0]"] ;
1217 -> 1219 ;
1220 [label="X[6] <= 0.004\ngini = 0.444\nsamples = 3\nvalue = [2, 1]"] ;
1214 -> 1220 ;
1221 [label="gini = 0.0\nsamples = 1\nvalue = [0, 1]"] ;
1220 -> 1221 ;
1222 [label="gini = 0.0\nsamples = 2\nvalue = [2, 0]"] ;
1220 -> 1222 ;
1223 [label="X[5] <= 0.001\ngini = 0.408\nsamples = 7\nvalue = [5, 2]"] ;
1213 -> 1223 ;
1224 [label="gini = 0.0\nsamples = 2\nvalue = [0, 2]"] ;
1223 -> 1224 ;
1225 [label="gini = 0.0\nsamples = 5\nvalue = [5, 0]"] ;
1223 -> 1225 ;
1226 [label="X[6] <= 0.001\ngini = 0.444\nsamples = 3\nvalue = [1, 2]"] ;
1212 -> 1226 ;
1227 [label="gini = 0.0\nsamples = 2\nvalue = [0, 2]"] ;
1226 -> 1227 ;
1228 [label="gini = 0.0\nsamples = 1\nvalue = [1, 0]"] ;
1226 -> 1228 ;
1229 [label="X[6] <= 0.004\ngini = 0.47\nsamples = 69\nvalue = [43, 26]"] ;
1209 -> 1229 ;
1230 [label="X[2] <= 0.016\ngini = 0.495\nsamples = 58\nvalue = [32, 26]"] ;
1229 -> 1230 ;
1231 [label="X[0] <= 0.0\ngini = 0.165\nsamples = 11\nvalue = [10, 1]"] ;
1230 -> 1231 ;
1232 [label="gini = 0.0\nsamples = 1\nvalue = [0, 1]"] ;
1231 -> 1232 ;
1233 [label="gini = 0.0\nsamples = 10\nvalue = [10, 0]"] ;
1231 -> 1233 ;
1234 [label="X[1] <= 0.019\ngini = 0.498\nsamples = 47\nvalue = [22, 25]"] ;
1230 -> 1234 ;
1235 [label="X[9] <= 0.004\ngini = 0.493\nsamples = 34\nvalue = [19, 15]"] ;
1234 -> 1235 ;
1236 [label="gini = 0.0\nsamples = 2\nvalue = [0, 2]"] ;
1235 -> 1236 ;
1237 [label="X[5] <= 0.004\ngini = 0.482\nsamples = 32\nvalue = [19, 13]"] ;
1235 -> 1237 ;
1238 [label="X[8] <= 0.028\ngini = 0.497\nsamples = 28\nvalue = [15, 13]"] ;
1237 -> 1238 ;
1239 [label="X[0] <= 0.0\ngini = 0.499\nsamples = 25\nvalue = [12, 13]"] ;
1238 -> 1239 ;
1240 [label="gini = 0.0\nsamples = 3\nvalue = [0, 3]"] ;
1239 -> 1240 ;
1241 [label="X[1] <= 0.015\ngini = 0.496\nsamples = 22\nvalue = [12, 10]"] ;
1239 -> 1241 ;
1242 [label="X[5] <= 0.003\ngini = 0.499\nsamples = 19\nvalue = [9, 10]"] ;
1241 -> 1242 ;
1243 [label="X[3] <= 0.002\ngini = 0.426\nsamples = 13\nvalue = [4, 9]"] ;
1242 -> 1243 ;
1244 [label="X[9] <= 0.005\ngini = 0.219\nsamples = 8\nvalue = [1, 7]"] ;
1243 -> 1244 ;
1245 [label="gini = 0.0\nsamples = 1\nvalue = [1, 0]"] ;
1244 -> 1245 ;
1246 [label="gini = 0.0\nsamples = 7\nvalue = [0, 7]"] ;
1244 -> 1246 ;
1247 [label="X[5] <= 0.003\ngini = 0.48\nsamples = 5\nvalue = [3, 2]"] ;
1243 -> 1247 ;
1248 [label="gini = 0.0\nsamples = 3\nvalue = [3, 0]"] ;
1247 -> 1248 ;
1249 [label="gini = 0.0\nsamples = 2\nvalue = [0, 2]"] ;
1247 -> 1249 ;
1250 [label="X[6] <= 0.004\ngini = 0.278\nsamples = 6\nvalue = [5, 1]"] ;
1242 -> 1250 ;
1251 [label="gini = 0.0\nsamples = 5\nvalue = [5, 0]"] ;
1250 -> 1251 ;
1252 [label="gini = 0.0\nsamples = 1\nvalue = [0, 1]"] ;
1250 -> 1252 ;
1253 [label="gini = 0.0\nsamples = 3\nvalue = [3, 0]"] ;
1241 -> 1253 ;
1254 [label="gini = 0.0\nsamples = 3\nvalue = [3, 0]"] ;
1238 -> 1254 ;
1255 [label="gini = 0.0\nsamples = 4\nvalue = [4, 0]"] ;
1237 -> 1255 ;
1256 [label="X[8] <= 0.024\ngini = 0.355\nsamples = 13\nvalue = [3, 10]"] ;
1234 -> 1256 ;
1257 [label="X[8] <= 0.011\ngini = 0.18\nsamples = 10\nvalue = [1, 9]"] ;
1256 -> 1257 ;
1258 [label="gini = 0.0\nsamples = 1\nvalue = [1, 0]"] ;
1257 -> 1258 ;
1259 [label="gini = 0.0\nsamples = 9\nvalue = [0, 9]"] ;
1257 -> 1259 ;
1260 [label="X[9] <= 0.005\ngini = 0.444\nsamples = 3\nvalue = [2, 1]"] ;
1256 -> 1260 ;
1261 [label="gini = 0.0\nsamples = 1\nvalue = [0, 1]"] ;
1260 -> 1261 ;
1262 [label="gini = 0.0\nsamples = 2\nvalue = [2, 0]"] ;
1260 -> 1262 ;
1263 [label="gini = 0.0\nsamples = 11\nvalue = [11, 0]"] ;
1229 -> 1263 ;
1264 [label="X[1] <= 0.02\ngini = 0.467\nsamples = 35\nvalue = [13, 22]"] ;
1208 -> 1264 ;
1265 [label="gini = 0.0\nsamples = 3\nvalue = [3, 0]"] ;
1264 -> 1265 ;
1266 [label="X[5] <= 0.001\ngini = 0.43\nsamples = 32\nvalue = [10, 22]"] ;
1264 -> 1266 ;
1267 [label="X[0] <= 0.001\ngini = 0.491\nsamples = 23\nvalue = [10, 13]"] ;
1266 -> 1267 ;
1268 [label="X[6] <= 0.0\ngini = 0.415\nsamples = 17\nvalue = [5, 12]"] ;
1267 -> 1268 ;
